{"learner":{"attributes":{"scikit_learn":"{\"_estimator_type\": \"regressor\"}"},"feature_names":["airline","source_city","departure_time","stops","arrival_time","destination_city","class","duration","days_left"],"feature_types":["float","float","float","float","float","float","float","float","int"],"gradient_booster":{"model":{"cats":{"enc":[],"feature_segments":[],"sorted_idx":[]},"gbtree_model_param":{"num_parallel_tree":"1","num_trees":"300"},"iteration_indptr":[0,1,2,3,4,5,6,7,8,9,10,11,12,13,14,15,16,17,18,19,20,21,22,23,24,25,26,27,28,29,30,31,32,33,34,35,36,37,38,39,40,41,42,43,44,45,46,47,48,49,50,51,52,53,54,55,56,57,58,59,60,61,62,63,64,65,66,67,68,69,70,71,72,73,74,75,76,77,78,79,80,81,82,83,84,85,86,87,88,89,90,91,92,93,94,95,96,97,98,99,100,101,102,103,104,105,106,107,108,109,110,111,112,113,114,115,116,117,118,119,120,121,122,123,124,125,126,127,128,129,130,131,132,133,134,135,136,137,138,139,140,141,142,143,144,145,146,147,148,149,150,151,152,153,154,155,156,157,158,159,160,161,162,163,164,165,166,167,168,169,170,171,172,173,174,175,176,177,178,179,180,181,182,183,184,185,186,187,188,189,190,191,192,193,194,195,196,197,198,199,200,201,202,203,204,205,206,207,208,209,210,211,212,213,214,215,216,217,218,219,220,221,222,223,224,225,226,227,228,229,230,231,232,233,234,235,236,237,238,239,240,241,242,243,244,245,246,247,248,249,250,251,252,253,254,255,256,257,258,259,260,261,262,263,264,265,266,267,268,269,270,271,272,273,274,275,276,277,278,279,280,281,282,283,284,285,286,287,288,289,290,291,292,293,294,295,296,297,298,299,300],"tree_info":[0,0,0,0,0,0,0,0,0,0,0,0,0,0,0,0,0,0,0,0,0,0,0,0,0,0,0,0,0,0,0,0,0,0,0,0,0,0,0,0,0,0,0,0,0,0,0,0,0,0,0,0,0,0,0,0,0,0,0,0,0,0,0,0,0,0,0,0,0,0,0,0,0,0,0,0,0,0,0,0,0,0,0,0,0,0,0,0,0,0,0,0,0,0,0,0,0,0,0,0,0,0,0,0,0,0,0,0,0,0,0,0,0,0,0,0,0,0,0,0,0,0,0,0,0,0,0,0,0,0,0,0,0,0,0,0,0,0,0,0,0,0,0,0,0,0,0,0,0,0,0,0,0,0,0,0,0,0,0,0,0,0,0,0,0,0,0,0,0,0,0,0,0,0,0,0,0,0,0,0,0,0,0,0,0,0,0,0,0,0,0,0,0,0,0,0,0,0,0,0,0,0,0,0,0,0,0,0,0,0,0,0,0,0,0,0,0,0,0,0,0,0,0,0,0,0,0,0,0,0,0,0,0,0,0,0,0,0,0,0,0,0,0,0,0,0,0,0,0,0,0,0,0,0,0,0,0,0,0,0,0,0,0,0,0,0,0,0,0,0,0,0,0,0,0,0,0,0,0,0,0,0,0,0,0,0,0,0,0,0,0,0,0,0,0,0,0,0,0,0],"trees":[{"base_weights":[-3.977354E-1,3.1618695E4,-1.4311385E4,3.398479E4,6.951555E3,-1.0349194E4,-1.5749827E4,2.8508223E4,3.69287E4,4.6587803E3,8.37505E3,-9.69972E3,-1.4415742E4,-1.5431373E4,-1.7801021E4,3.1554125E4,2.7319451E4,3.501762E4,4.059931E4,6.23963E3,2.3780774E3,1.3410409E4,8.01323E3,-6.1333477E3,-1.0235569E4,-1.2511018E4,-1.4701183E4,-1.769269E4,-1.5228727E4,-1.7715928E4,-1.810327E4,2.9138508E4,3.337143E4,3.0232527E4,2.5730416E4,3.2308393E4,3.893097E4,4.969359E4,3.9962406E4,1.0062838E4,2.7260579E3,-1.6613322E3,2.8310503E3,1.5528324E4,1.1809565E4,9.214899E3,6.550793E3,-7.114743E3,-4.328148E3,-1.1100624E4,-8.778494E3,-1.2235974E4,-1.3437081E4,-1.4566684E4,-1.276931E3,-1.3086135E3,-1.7777525E4,-1.5370465E4,-1.279181E4,-1.7901377E4,-1.3395553E3,-1.4658201E3,-1.3092128E3,2.6911628E3,2.2668545E3,2.9831465E3,2.6051013E3,1.9184674E3,2.5985813E3,2.5088728E3,2.036849E3,2.5641038E3,4.0649912E3,2.5380352E3,3.1898865E3,3.4394482E3,4.0451196E3,3.1767148E3,4.229422E3,9.51989E2,7.504704E2,2.0525192E1,2.977043E2,-6.733979E2,7.2683E1,9.3175255E1,2.7358667E2,1.4179025E3,9.506539E2,6.528235E2,1.023759E3,5.4156165E2,8.584335E2,9.601159E1,6.525064E2,-8.7377997E2,-5.4704974E2,-3.7925546E2,-6.2122593E1,-7.774795E2,-1.0020221E3,-7.244434E2,-3.5909592E2,-1.0025671E3,-8.274052E2,-1.1081835E3,-8.488672E2,-1.1457866E3,-1.1875521E3,-1.3777249E3,-1.4322665E3,-1.258898E3,-1.1845782E3,-1.1060201E3,-9.8060693E2,-1.4237985E3,-1.4688658E3],"categories":[],"categories_nodes":[],"categories_segments":[],"categories_sizes":[],"default_left":[0,0,0,0,0,0,0,0,0,0,0,0,0,0,0,0,0,0,0,0,0,0,0,0,0,0,0,0,0,0,0,0,0,0,0,0,0,0,0,0,0,0,0,0,0,0,0,0,0,0,0,0,0,0,0,0,0,0,0,0,0,0,0,0,0,0,0,0,0,0,0,0,0,0,0,0,0,0,0,0,0,0,0,0,0,0,0,0,0,0,0,0,0,0,0,0,0,0,0,0,0,0,0,0,0,0,0,0,0,0,0,0,0,0,0,0,0],"id":0,"left_children":[1,3,5,7,9,11,13,15,17,19,21,23,25,27,29,31,33,35,37,39,41,43,45,47,49,51,53,55,57,59,61,63,65,67,69,71,73,75,77,79,81,83,85,87,89,91,93,95,97,99,101,103,105,107,-1,-1,109,111,113,115,-1,-1,-1,-1,-1,-1,-1,-1,-1,-1,-1,-1,-1,-1,-1,-1,-1,-1,-1,-1,-1,-1,-1,-1,-1,-1,-1,-1,-1,-1,-1,-1,-1,-1,-1,-1,-1,-1,-1,-1,-1,-1,-1,-1,-1,-1,-1,-1,-1,-1,-1,-1,-1,-1,-1,-1,-1],"loss_changes":[9.769259E13,3.925898E12,8.4691596E11,9.885723E11,1.918124E10,1.0441956E11,7.095085E10,7.685852E10,2.7859406E11,8.1262633E9,6.509658E9,6.518001E10,2.7791196E9,4.2985325E10,5.6098816E7,2.5450512E10,7.072016E10,2.7713444E11,7.714164E10,1.7878909E10,1.6990449E9,6.371041E8,5.898879E9,7.8741504E9,3.731148E10,1.8210816E7,5.699666E8,5.87989E8,2.972713E10,1.767637E9,9.10164E8,8.4129874E9,9.633006E9,7.581729E10,1.4394851E10,7.221438E10,7.166178E10,3.0167532E9,3.9680213E10,6.876447E8,1.7096417E9,1.6397134E9,8.132946E8,5.9766374E8,4.07253E8,6.8168417E9,1.3159703E10,2.968109E9,2.302548E9,3.653999E10,1.3105103E10,1.8659738E8,3.373056E7,7.851213E7,0E0,0E0,2.0106445E8,1.6632513E10,2.462843E9,1.3264486E8,0E0,0E0,0E0,0E0,0E0,0E0,0E0,0E0,0E0,0E0,0E0,0E0,0E0,0E0,0E0,0E0,0E0,0E0,0E0,0E0,0E0,0E0,0E0,0E0,0E0,0E0,0E0,0E0,0E0,0E0,0E0,0E0,0E0,0E0,0E0,0E0,0E0,0E0,0E0,0E0,0E0,0E0,0E0,0E0,0E0,0E0,0E0,0E0,0E0,0E0,0E0,0E0,0E0,0E0,0E0,0E0,0E0],"parents":[2147483647,0,0,1,1,2,2,3,3,4,4,5,5,6,6,7,7,8,8,9,9,10,10,11,11,12,12,13,13,14,14,15,15,16,16,17,17,18,18,19,19,20,20,21,21,22,22,23,23,24,24,25,25,26,26,27,27,28,28,29,29,30,30,31,31,32,32,33,33,34,34,35,35,36,36,37,37,38,38,39,39,40,40,41,41,42,42,43,43,44,44,45,45,46,46,47,47,48,48,49,49,50,50,51,51,52,52,53,53,56,56,57,57,58,58,59,59],"right_children":[2,4,6,8,10,12,14,16,18,20,22,24,26,28,30,32,34,36,38,40,42,44,46,48,50,52,54,56,58,60,62,64,66,68,70,72,74,76,78,80,82,84,86,88,90,92,94,96,98,100,102,104,106,108,-1,-1,110,112,114,116,-1,-1,-1,-1,-1,-1,-1,-1,-1,-1,-1,-1,-1,-1,-1,-1,-1,-1,-1,-1,-1,-1,-1,-1,-1,-1,-1,-1,-1,-1,-1,-1,-1,-1,-1,-1,-1,-1,-1,-1,-1,-1,-1,-1,-1,-1,-1,-1,-1,-1,-1,-1,-1,-1,-1,-1,-1],"split_conditions":[1E0,2E0,1.6E1,2E0,2E0,2E0,2E0,2E0,4E0,3E0,6E0,4E0,4E0,1E0,5E0,2E0,2E0,4E0,6E0,3E0,1E0,4E0,3E0,5E0,5E0,5E0,1.5E1,1.8E1,1E0,4E0,4E0,2E0,2E0,3E0,4E0,1E0,2E0,1E0,1E0,1E0,2E0,4E0,4E0,3E0,2E0,2E0,2E0,1E0,1E0,2E0,1E0,4E0,4E0,3E0,-1.276931E3,-1.3086135E3,1E0,4E0,4E0,3E0,-1.3395553E3,-1.4658201E3,-1.3092128E3,2.6911628E3,2.2668545E3,2.9831465E3,2.6051013E3,1.9184674E3,2.5985813E3,2.5088728E3,2.036849E3,2.5641038E3,4.0649912E3,2.5380352E3,3.1898865E3,3.4394482E3,4.0451196E3,3.1767148E3,4.229422E3,9.51989E2,7.504704E2,2.0525192E1,2.977043E2,-6.733979E2,7.2683E1,9.3175255E1,2.7358667E2,1.4179025E3,9.506539E2,6.528235E2,1.023759E3,5.4156165E2,8.584335E2,9.601159E1,6.525064E2,-8.7377997E2,-5.4704974E2,-3.7925546E2,-6.2122593E1,-7.774795E2,-1.0020221E3,-7.244434E2,-3.5909592E2,-1.0025671E3,-8.274052E2,-1.1081835E3,-8.488672E2,-1.1457866E3,-1.1875521E3,-1.3777249E3,-1.4322665E3,-1.258898E3,-1.1845782E3,-1.1060201E3,-9.8060693E2,-1.4237985E3,-1.4688658E3],"split_indices":[6,3,8,0,0,3,3,1,5,5,8,8,8,0,1,2,5,1,8,1,1,8,1,0,0,1,8,8,3,1,5,5,5,1,8,3,4,2,3,1,5,5,5,5,5,1,5,0,3,0,3,1,5,5,0,0,5,0,0,1,0,0,0,0,0,0,0,0,0,0,0,0,0,0,0,0,0,0,0,0,0,0,0,0,0,0,0,0,0,0,0,0,0,0,0,0,0,0,0,0,0,0,0,0,0,0,0,0,0,0,0,0,0,0,0,0,0],"split_type":[0,0,0,0,0,0,0,0,0,0,0,0,0,0,0,0,0,0,0,0,0,0,0,0,0,0,0,0,0,0,0,0,0,0,0,0,0,0,0,0,0,0,0,0,0,0,0,0,0,0,0,0,0,0,0,0,0,0,0,0,0,0,0,0,0,0,0,0,0,0,0,0,0,0,0,0,0,0,0,0,0,0,0,0,0,0,0,0,0,0,0,0,0,0,0,0,0,0,0,0,0,0,0,0,0,0,0,0,0,0,0,0,0,0,0,0,0],"sum_hessian":[2.15893E5,6.7268E4,1.48625E5,6.138E4,5.888E3,3.9588E4,1.09037E5,2.1463E4,3.9917E4,2.257E3,3.631E3,3.4139E4,5.449E3,9.4391E4,1.4646E4,6.018E3,1.5445E4,2.6257E4,1.366E4,1.332E3,9.25E2,2.41E2,3.39E3,4.461E3,2.9678E4,7.16E2,4.733E3,7.756E3,8.6635E4,1.1475E4,3.171E3,2.591E3,3.427E3,5.445E3,1E4,1.5521E4,1.0736E4,8.89E2,1.2771E4,6.37E2,6.95E2,9.3E1,8.32E2,1E2,1.41E2,1.858E3,1.532E3,2.888E3,1.573E3,1.8618E4,1.106E4,5.63E2,1.53E2,4.288E3,4.45E2,4.75E2,7.281E3,8.1868E4,4.767E3,9.621E3,1.854E3,2.807E3,3.64E2,3.86E2,2.205E3,5.78E2,2.849E3,1.444E3,4.001E3,4.52E2,9.548E3,1.5311E4,2.1E2,1.246E3,9.49E3,1.08E2,7.81E2,1.2529E4,2.42E2,1.68E2,4.69E2,2E2,4.95E2,2.5E1,6.8E1,2.18E2,6.14E2,6E1,4E1,3.2E1,1.09E2,7.13E2,1.145E3,3.54E2,1.178E3,1.93E2,2.695E3,1.409E3,1.64E2,9.454E3,9.164E3,1.0388E4,6.72E2,4.82E2,8.1E1,1.3E2,2.3E1,2.309E3,1.979E3,1.369E3,5.912E3,4.9619E4,3.2249E4,1.616E3,3.151E3,7.879E3,1.742E3],"tree_param":{"num_deleted":"0","num_feature":"9","num_nodes":"117","size_leaf_vector":"1"}},{"base_weights":[-1.0034225E1,-6.4953022E3,8.710716E3,-5.395242E2,-1.4145258E4,1.0510977E4,-3.220397E3,-1.5501344E4,2.4333967E3,-1.1524442E4,-1.504479E4,1.4085255E4,9.762178E3,9.4089746E2,-4.6740283E3,-1.250982E4,-1.6306276E4,3.6418884E3,-6.1566367E3,-8.237118E3,-1.2008375E4,-1.681088E4,-1.4732652E4,1.284594E4,1.6540332E4,8.875178E3,1.1484095E4,7.656718E3,-2.4190725E3,-9.158738E3,-3.6147E3,-1.1312799E4,-1.354142E4,-1.4109598E3,-1.6227195E4,7.794317E3,2.0722969E3,-1.1979328E4,-5.743722E3,-1.1365437E4,-7.1788022E3,-1.3956391E4,-1.1537835E4,-1.3888287E3,-1.3189681E3,-1.41614795E4,-1.5032446E4,1.0816778E4,1.5615175E4,1.8833324E4,1.4977277E4,7.2874473E3,1.1206115E4,1.2754528E4,8.618174E3,1.0937632E4,1.2581631E3,-7.66361E3,-9.108276E2,-1.182635E4,-5.952012E3,-7.335323E3,-2.1188442E3,-1.1355897E3,-8.6928375E2,-1.0455547E3,-1.1355952E3,-1.2024218E3,-1.304011E3,6.886071E2,3.8552866E2,2.3450786E2,-1.2281136E2,-1.0360312E3,-7.379309E2,-3.473668E2,-5.8339886E2,-9.4439435E2,-7.922944E2,-5.3185535E2,-7.135296E2,-1.2144004E3,-1.0810515E3,-8.699719E2,-9.765815E2,-1.1482397E3,-1.1090194E3,-1.1741832E3,-1.2618027E3,9.1741394E2,4.7078232E2,1.5674392E3,1.1141511E3,3.4356436E2,1.5349862E3,1.3763088E3,1.0662917E3,6.172712E2,1.6789188E2,1.2506101E3,7.519149E2,1.3743801E3,9.173681E2,6.781659E2,3.347538E3,-2.4187132E2,1.0895454E3,1.00797003E3,-1.178331E2,-8.2875305E2,-5.0188757E2,7.384036E1,-1.23369156E2,-4.052714E2,-9.788723E2,-1.3215596E2,-8.2786444E2,-1.5392448E2,-8.457822E2,-3.4071155E2,2.1734563E2],"categories":[],"categories_nodes":[],"categories_segments":[],"categories_sizes":[],"default_left":[0,0,0,0,0,0,0,0,0,0,0,0,0,0,0,0,0,0,0,0,0,0,0,0,0,0,0,0,0,0,0,0,0,0,0,0,0,0,0,0,0,0,0,0,0,0,0,0,0,0,0,0,0,0,0,0,0,0,0,0,0,0,0,0,0,0,0,0,0,0,0,0,0,0,0,0,0,0,0,0,0,0,0,0,0,0,0,0,0,0,0,0,0,0,0,0,0,0,0,0,0,0,0,0,0,0,0,0,0,0,0,0,0,0,0,0,0,0,0,0,0],"id":1,"left_children":[1,3,5,7,9,11,13,15,17,19,21,23,25,27,29,31,33,35,37,39,41,43,45,47,49,51,53,55,57,59,61,63,65,-1,67,69,71,73,75,77,79,81,83,-1,-1,85,87,89,91,93,95,97,99,101,103,105,107,109,111,113,115,117,119,-1,-1,-1,-1,-1,-1,-1,-1,-1,-1,-1,-1,-1,-1,-1,-1,-1,-1,-1,-1,-1,-1,-1,-1,-1,-1,-1,-1,-1,-1,-1,-1,-1,-1,-1,-1,-1,-1,-1,-1,-1,-1,-1,-1,-1,-1,-1,-1,-1,-1,-1,-1,-1,-1,-1,-1,-1,-1],"loss_changes":[1.2224723E13,5.647971E12,1.9801288E12,3.1003598E12,1.27754306E11,2.142461E11,7.311852E10,2.7617657E10,6.036559E11,2.1965963E10,2.2020096E10,4.199442E10,1.0105389E11,7.064683E10,4.2524393E10,2.8771287E9,6.713508E8,3.322324E11,1.7174643E10,5.821473E9,1.0919084E10,7.91937E8,5.667029E9,5.165718E10,1.6384E10,1.617106E11,8.186285E10,2.1903036E10,1.6501287E10,1.4566015E10,4.0323318E10,1.3161595E9,2.1948006E8,0E0,5.0620006E8,3.379259E10,1.1465114E11,1.1487191E9,1.4510572E10,1.7153638E8,1.1734876E9,1.06777805E9,4.192338E9,0E0,0E0,4.7815066E8,5.6822333E9,1.7030185E10,2.590494E10,9.598665E9,9.938797E9,5.78E10,1.4153207E11,8.866156E10,3.207807E10,2.5874153E10,1.1014472E10,1.6812073E9,1.879171E9,2.5212928E9,1.4709385E10,3.637796E10,5.3524005E10,0E0,0E0,0E0,0E0,0E0,0E0,0E0,0E0,0E0,0E0,0E0,0E0,0E0,0E0,0E0,0E0,0E0,0E0,0E0,0E0,0E0,0E0,0E0,0E0,0E0,0E0,0E0,0E0,0E0,0E0,0E0,0E0,0E0,0E0,0E0,0E0,0E0,0E0,0E0,0E0,0E0,0E0,0E0,0E0,0E0,0E0,0E0,0E0,0E0,0E0,0E0,0E0,0E0,0E0,0E0,0E0,0E0,0E0],"parents":[2147483647,0,0,1,1,2,2,3,3,4,4,5,5,6,6,7,7,8,8,9,9,10,10,11,11,12,12,13,13,14,14,15,15,16,16,17,17,18,18,19,19,20,20,21,21,22,22,23,23,24,24,25,25,26,26,27,27,28,28,29,29,30,30,31,31,32,32,34,34,35,35,36,36,37,37,38,38,39,39,40,40,41,41,42,42,45,45,46,46,47,47,48,48,49,49,50,50,51,51,52,52,53,53,54,54,55,55,56,56,57,57,58,58,59,59,60,60,61,61,62,62],"right_children":[2,4,6,8,10,12,14,16,18,20,22,24,26,28,30,32,34,36,38,40,42,44,46,48,50,52,54,56,58,60,62,64,66,-1,68,70,72,74,76,78,80,82,84,-1,-1,86,88,90,92,94,96,98,100,102,104,106,108,110,112,114,116,118,120,-1,-1,-1,-1,-1,-1,-1,-1,-1,-1,-1,-1,-1,-1,-1,-1,-1,-1,-1,-1,-1,-1,-1,-1,-1,-1,-1,-1,-1,-1,-1,-1,-1,-1,-1,-1,-1,-1,-1,-1,-1,-1,-1,-1,-1,-1,-1,-1,-1,-1,-1,-1,-1,-1,-1,-1,-1,-1],"split_conditions":[5E0,2E0,1E0,1E0,1.6E1,1.1E1,1.6E1,1.6E1,1E0,4E0,2.42E0,4E0,4E0,2E0,1E0,1.1E1,2.08E0,1.6E1,1.75E0,3.5E0,2.75E0,1.83E0,3E0,4E0,2E0,4E0,1.65E1,1.675E1,2.08E0,2E0,2E0,2.58E0,3E0,-1.4109598E3,1.8E1,2.358E1,2.358E1,1.58E0,3E0,2.67E0,1.133E1,1.75E0,1.1E1,-1.3888287E3,-1.3189681E3,4E0,3.9E1,2.433E1,1E0,2E0,5E0,2.433E1,1E0,1E0,3.2E1,1E0,3E0,1.67E0,6E0,1E0,3E0,3E0,8.75E0,-1.1355897E3,-8.6928375E2,-1.0455547E3,-1.1355952E3,-1.2024218E3,-1.304011E3,6.886071E2,3.8552866E2,2.3450786E2,-1.2281136E2,-1.0360312E3,-7.379309E2,-3.473668E2,-5.8339886E2,-9.4439435E2,-7.922944E2,-5.3185535E2,-7.135296E2,-1.2144004E3,-1.0810515E3,-8.699719E2,-9.765815E2,-1.1482397E3,-1.1090194E3,-1.1741832E3,-1.2618027E3,9.1741394E2,4.7078232E2,1.5674392E3,1.1141511E3,3.4356436E2,1.5349862E3,1.3763088E3,1.0662917E3,6.172712E2,1.6789188E2,1.2506101E3,7.519149E2,1.3743801E3,9.173681E2,6.781659E2,3.347538E3,-2.4187132E2,1.0895454E3,1.00797003E3,-1.178331E2,-8.2875305E2,-5.0188757E2,7.384036E1,-1.23369156E2,-4.052714E2,-9.788723E2,-1.3215596E2,-8.2786444E2,-1.5392448E2,-8.457822E2,-3.4071155E2,2.1734563E2],"split_indices":[0,0,3,0,8,8,8,8,3,8,7,5,1,3,5,8,7,8,7,7,7,7,0,1,1,5,7,7,7,3,1,7,1,0,8,7,7,7,5,7,7,7,8,0,0,1,8,7,5,8,5,7,1,5,7,1,8,7,8,4,1,5,7,0,0,0,0,0,0,0,0,0,0,0,0,0,0,0,0,0,0,0,0,0,0,0,0,0,0,0,0,0,0,0,0,0,0,0,0,0,0,0,0,0,0,0,0,0,0,0,0,0,0,0,0,0,0,0,0,0,0],"split_type":[0,0,0,0,0,0,0,0,0,0,0,0,0,0,0,0,0,0,0,0,0,0,0,0,0,0,0,0,0,0,0,0,0,0,0,0,0,0,0,0,0,0,0,0,0,0,0,0,0,0,0,0,0,0,0,0,0,0,0,0,0,0,0,0,0,0,0,0,0,0,0,0,0,0,0,0,0,0,0,0,0,0,0,0,0,0,0,0,0,0,0,0,0,0,0,0,0,0,0,0,0,0,0,0,0,0,0,0,0,0,0,0,0,0,0,0,0,0,0,0,0],"sum_hessian":[2.16149E5,1.23963E5,9.2186E4,6.97E4,5.4263E4,8.01E4,1.2086E4,1.1553E4,5.8147E4,1.3869E4,4.0394E4,1.3871E4,6.6229E4,3.129E3,8.957E3,2.453E3,9.1E3,5.0976E4,7.171E3,1.782E3,1.2087E4,6.059E3,3.4335E4,9.222E3,4.649E3,4.3716E4,2.2513E4,1.043E3,2.086E3,1.71E3,7.247E3,1.141E3,1.312E3,4.98E2,8.602E3,1.3982E4,3.6994E4,4.73E2,6.698E3,4.48E2,1.334E3,2.346E3,9.741E3,2.227E3,3.832E3,1.1835E4,2.25E4,5.325E3,3.897E3,1.88E3,2.769E3,2.6006E4,1.771E4,1.5596E4,6.917E3,6.89E2,3.54E2,4.65E2,1.621E3,9.32E2,7.78E2,2.077E3,5.17E3,1.49E2,9.92E2,7.74E2,5.38E2,5.06E2,8.096E3,1.0979E4,3.003E3,2.9879E4,7.115E3,3.47E2,1.26E2,3.518E3,3.18E3,3.39E2,1.09E2,1.026E3,3.08E2,6.15E2,1.731E3,4.902E3,4.839E3,7.183E3,4.652E3,1.5218E4,7.282E3,4.703E3,6.22E2,1.158E3,2.739E3,4.5E1,1.835E3,1.174E3,1.595E3,2.4022E4,1.984E3,5.132E3,1.2578E4,3.512E3,1.2084E4,6.889E3,2.8E1,1.11E2,5.78E2,6.8E1,2.86E2,1.56E2,3.09E2,4.15E2,1.206E3,5.4E1,8.78E2,3.94E2,3.84E2,7.78E2,1.299E3,3.584E3,1.586E3],"tree_param":{"num_deleted":"0","num_feature":"9","num_nodes":"121","size_leaf_vector":"1"}},{"base_weights":[6.921188E0,2.8560451E4,-1.2909956E4,3.0632715E4,6.7594297E3,-9.524681E3,-1.4137782E4,2.592359E4,3.3161957E4,4.7606978E3,7.9959756E3,-9.058053E3,-1.24441455E4,-1.3950627E4,-1.5337531E4,2.8702188E4,2.4824709E4,3.1467582E4,3.6384684E4,6.1051484E3,2.835099E3,9.161889E3,6.5091924E3,-5.9610737E3,-9.521394E3,-1.0829849E4,-1.2680044E4,-1.408613E4,-1.197531E4,-1.5208869E4,-1.2717666E3,2.6529438E4,3.0322256E4,2.7530596E4,2.3340797E4,2.9101244E4,3.4846688E4,4.4260656E4,3.5837617E4,9.635755E3,2.9315173E3,2.091541E2,3.5254722E3,6.6728857E3,1.0713151E4,1.6208533E3,8.0153657E3,-6.2237256E3,-3.155095E3,-9.745338E3,-6.9519443E3,-1.011263E4,-8.8651495E2,-1.2566481E4,-1.101058E3,-1.2928512E4,-1.4157231E4,-1.4744497E4,-1.1256442E4,-1.5513777E4,-1.4995602E4,1.9221364E3,2.2547756E3,2.7048215E3,2.3691553E3,1.7429913E3,2.3680864E3,2.2790796E3,1.8475416E3,2.3088257E3,3.763123E3,3.9429434E3,2.7544697E3,3.3885369E3,3.8112993E3,2.7921787E3,3.1251914E3,9.145233E2,7.1270074E2,6.69199E1,3.0210397E2,-5.1897906E2,1.26432594E2,1.531821E2,3.34829E2,8.7829755E2,1.4672733E2,7.8533624E2,1.0162218E3,4.502302E1,2.6727188E2,4.1524742E1,8.1072217E2,-4.5971027E2,-6.2193677E2,-8.3130493E2,-1.7866861E2,-7.319368E2,-8.359722E2,-9.018553E2,-4.984924E2,-6.6722626E2,-8.4496735E2,-9.9574E2,-1.0422426E3,-1.0212429E3,-1.1084967E3,-1.207148E3,-1.1267092E3,-1.0922855E3,-1.2028523E3,-8.293056E2,-9.2797406E2,-1.2053724E3,-1.254388E3,-1.2111866E3,-1.1754133E3],"categories":[],"categories_nodes":[],"categories_segments":[],"categories_sizes":[],"default_left":[0,0,0,0,0,0,0,0,0,0,0,0,0,0,0,0,0,0,0,0,0,0,0,0,0,0,0,0,0,0,0,0,0,0,0,0,0,0,0,0,0,0,0,0,0,0,0,0,0,0,0,0,0,0,0,0,0,0,0,0,0,0,0,0,0,0,0,0,0,0,0,0,0,0,0,0,0,0,0,0,0,0,0,0,0,0,0,0,0,0,0,0,0,0,0,0,0,0,0,0,0,0,0,0,0,0,0,0,0,0,0,0,0,0,0,0,0],"id":2,"left_children":[1,3,5,7,9,11,13,15,17,19,21,23,25,27,29,31,33,35,37,39,41,43,45,47,49,51,53,55,57,59,-1,61,63,65,67,69,71,73,75,77,79,81,83,85,87,89,91,93,95,97,99,101,-1,103,-1,105,107,109,111,113,115,-1,-1,-1,-1,-1,-1,-1,-1,-1,-1,-1,-1,-1,-1,-1,-1,-1,-1,-1,-1,-1,-1,-1,-1,-1,-1,-1,-1,-1,-1,-1,-1,-1,-1,-1,-1,-1,-1,-1,-1,-1,-1,-1,-1,-1,-1,-1,-1,-1,-1,-1,-1,-1,-1,-1,-1],"loss_changes":[7.977223E13,3.0433073E12,6.188591E11,7.318767E11,1.4417871E10,5.3888942E10,2.4326963E10,6.4937263E10,2.1738239E11,5.7765847E9,6.2016225E9,4.8991568E10,1.9418972E9,2.513856E10,8.1946214E8,2.062182E10,6.1253616E10,2.0877987E11,5.78038E10,1.4728532E10,1.6707395E9,7.7356564E9,1.1701039E10,3.2607273E9,1.7039884E10,1.4794752E7,4.1228698E8,7.097811E9,1.1929321E10,5.4788096E8,0E0,1.0126754E10,7.5903795E9,6.4209814E10,1.1983651E10,6.5355645E10,6.315678E10,3.7169398E9,3.7559992E10,7.115039E8,1.2268764E9,1.7824654E9,7.678904E8,1.6210362E10,2.0940882E9,6.824099E8,1.9307422E10,2.9668803E9,2.5313605E9,1.1385176E10,7.364567E9,6.644531E7,0E0,7.641498E7,0E0,5.98868E8,5.487198E9,1.9144704E8,1.3548257E9,1.2805734E8,8.742502E7,0E0,0E0,0E0,0E0,0E0,0E0,0E0,0E0,0E0,0E0,0E0,0E0,0E0,0E0,0E0,0E0,0E0,0E0,0E0,0E0,0E0,0E0,0E0,0E0,0E0,0E0,0E0,0E0,0E0,0E0,0E0,0E0,0E0,0E0,0E0,0E0,0E0,0E0,0E0,0E0,0E0,0E0,0E0,0E0,0E0,0E0,0E0,0E0,0E0,0E0,0E0,0E0,0E0,0E0,0E0,0E0],"parents":[2147483647,0,0,1,1,2,2,3,3,4,4,5,5,6,6,7,7,8,8,9,9,10,10,11,11,12,12,13,13,14,14,15,15,16,16,17,17,18,18,19,19,20,20,21,21,22,22,23,23,24,24,25,25,26,26,27,27,28,28,29,29,31,31,32,32,33,33,34,34,35,35,36,36,37,37,38,38,39,39,40,40,41,41,42,42,43,43,44,44,45,45,46,46,47,47,48,48,49,49,50,50,51,51,53,53,55,55,56,56,57,57,58,58,59,59,60,60],"right_children":[2,4,6,8,10,12,14,16,18,20,22,24,26,28,30,32,34,36,38,40,42,44,46,48,50,52,54,56,58,60,-1,62,64,66,68,70,72,74,76,78,80,82,84,86,88,90,92,94,96,98,100,102,-1,104,-1,106,108,110,112,114,116,-1,-1,-1,-1,-1,-1,-1,-1,-1,-1,-1,-1,-1,-1,-1,-1,-1,-1,-1,-1,-1,-1,-1,-1,-1,-1,-1,-1,-1,-1,-1,-1,-1,-1,-1,-1,-1,-1,-1,-1,-1,-1,-1,-1,-1,-1,-1,-1,-1,-1,-1,-1,-1,-1,-1,-1],"split_conditions":[1E0,2E0,1.6E1,2E0,2E0,2E0,2E0,2E0,4E0,3E0,3E0,4E0,4E0,1E0,5E0,2E0,2E0,4E0,6E0,3E0,2E0,2E0,2E0,1E0,1E0,2E0,1.5E1,1.8E1,1E0,3E0,-1.2717666E3,3E0,2E0,3E0,4E0,1E0,4E0,5E0,4E0,1E0,2E0,4E0,4E0,3E0,5E0,1E0,4E0,5E0,1E0,1.1E1,1E0,2E0,-8.8651495E2,5E0,-1.101058E3,5E0,1E0,1E0,2.5E1,1E0,4E0,1.9221364E3,2.2547756E3,2.7048215E3,2.3691553E3,1.7429913E3,2.3680864E3,2.2790796E3,1.8475416E3,2.3088257E3,3.763123E3,3.9429434E3,2.7544697E3,3.3885369E3,3.8112993E3,2.7921787E3,3.1251914E3,9.145233E2,7.1270074E2,6.69199E1,3.0210397E2,-5.1897906E2,1.26432594E2,1.531821E2,3.34829E2,8.7829755E2,1.4672733E2,7.8533624E2,1.0162218E3,4.502302E1,2.6727188E2,4.1524742E1,8.1072217E2,-4.5971027E2,-6.2193677E2,-8.3130493E2,-1.7866861E2,-7.319368E2,-8.359722E2,-9.018553E2,-4.984924E2,-6.6722626E2,-8.4496735E2,-9.9574E2,-1.0422426E3,-1.0212429E3,-1.1084967E3,-1.207148E3,-1.1267092E3,-1.0922855E3,-1.2028523E3,-8.293056E2,-9.2797406E2,-1.2053724E3,-1.254388E3,-1.2111866E3,-1.1754133E3],"split_indices":[6,3,8,0,0,3,3,1,5,5,5,8,8,3,0,2,5,1,8,1,1,5,1,3,3,8,8,8,0,0,0,5,5,1,8,3,8,4,1,5,5,5,5,1,4,1,5,1,0,8,0,1,0,0,0,2,0,5,8,0,1,0,0,0,0,0,0,0,0,0,0,0,0,0,0,0,0,0,0,0,0,0,0,0,0,0,0,0,0,0,0,0,0,0,0,0,0,0,0,0,0,0,0,0,0,0,0,0,0,0,0,0,0,0,0,0,0],"split_type":[0,0,0,0,0,0,0,0,0,0,0,0,0,0,0,0,0,0,0,0,0,0,0,0,0,0,0,0,0,0,0,0,0,0,0,0,0,0,0,0,0,0,0,0,0,0,0,0,0,0,0,0,0,0,0,0,0,0,0,0,0,0,0,0,0,0,0,0,0,0,0,0,0,0,0,0,0,0,0,0,0,0,0,0,0,0,0,0,0,0,0,0,0,0,0,0,0,0,0,0,0,0,0,0,0,0,0,0,0,0,0,0,0,0,0,0,0],"sum_hessian":[2.16287E5,6.7367E4,1.4892E5,6.1519E4,5.848E3,3.9639E4,1.09281E5,2.15E4,4.0019E4,2.237E3,3.611E3,3.418E4,5.459E3,9.4545E4,1.4736E4,6.086E3,1.5414E4,2.6236E4,1.3783E4,1.316E3,9.21E2,2.021E3,1.59E3,4.45E3,2.973E4,7.02E2,4.757E3,8.847E4,6.075E3,1.2004E4,2.732E3,2.607E3,3.479E3,5.453E3,9.961E3,1.5436E4,1.08E4,8.9E2,1.2893E4,6.22E2,6.94E2,1.92E2,7.29E2,7.78E2,1.243E3,3.75E2,1.215E3,4.068E3,3.82E2,2.7344E4,2.386E3,1.93E2,5.09E2,4.317E3,4.4E2,5.13E3,8.334E4,1.248E3,4.827E3,4.911E3,7.093E3,1.044E3,1.563E3,5.79E2,2.9E3,1.448E3,4.005E3,4.5E2,9.511E3,1.5234E4,2.02E2,2.99E2,1.0501E4,5.78E2,3.12E2,1.0005E4,2.888E3,1.75E2,4.47E2,2E2,4.94E2,3.2E1,1.6E2,2.13E2,5.16E2,4.11E2,3.67E2,8.61E2,3.82E2,2.33E2,1.42E2,2.68E2,9.47E2,3.114E3,9.54E2,4.2E1,3.4E2,1.4817E4,1.2527E4,3.39E2,2.047E3,4.3E1,1.5E2,3.45E3,8.67E2,4.376E3,7.54E2,6.066E3,7.7274E4,2.73E2,9.75E2,1.352E3,3.475E3,1.356E3,3.555E3,4.772E3,2.321E3],"tree_param":{"num_deleted":"0","num_feature":"9","num_nodes":"117","size_leaf_vector":"1"}},{"base_weights":[1.5012778E1,2.6267975E4,-1.1878943E4,6.287402E3,2.8307947E4,-1.3739698E4,-1.1674047E4,-2.0970436E2,7.799324E3,2.4076816E4,3.0555994E4,-1.4305921E4,-1.3488995E4,-1.1728266E4,-8.278012E3,-3.5247507E3,1.3067072E3,5.0358784E3,9.743585E3,2.6385473E4,2.3159496E4,2.8991348E4,3.3545793E4,-1.1705002E3,-1.1232476E3,-1.3312793E4,-1.4140734E4,-1.3039875E4,-1.1616074E4,-8.883701E3,-6.844868E3,-7.257009E3,-3.1131506E3,5.002116E2,2.5633591E3,2.807906E3,6.825061E3,5.8796123E3,1.0424573E4,2.432519E4,2.7920324E4,2.536528E4,2.1928842E4,2.6782205E4,3.2161541E4,3.3271906E4,4.557738E4,-1.3819137E4,-1.2954583E4,-1.1370387E3,-1.0314426E3,-1.2876568E4,-1.373132E4,-1.1745522E4,-1.0347313E4,-9.412103E3,-7.3389746E3,-7.5717417E3,-3.8772817E3,-6.062309E2,-3.0015912E2,-2.8919244E2,-1.6869922E2,6.2724617E1,-5.7278816E1,1.6887726E2,1.0356177E3,2.8848508E2,1.4959186E2,1.1398328E2,6.3982263E2,2.4343138E2,5.796363E2,8.069498E2,1.3208998E3,7.053757E2,1.9633145E3,2.4948354E3,2.1791567E3,1.6129518E3,2.1791638E3,9.526095E2,1.7657231E3,2.1243008E3,3.4385818E3,2.7606997E3,2.3721216E3,2.738826E3,2.4319827E3,4.1787896E3,3.1141196E3,-1.1205675E3,-1.0629694E3,-1.0451509E3,-9.9592053E2,-9.867924E2,-1.0429695E3,-9.9619464E2,-1.1082592E3,-9.503045E2,-9.208916E2,-9.946711E2,-7.042548E2,-8.578212E2,-7.264362E2,-5.593146E2,-7.451249E2,-7.5155536E2,-4.896234E2,-5.6608997E2,-2.5060509E2],"categories":[],"categories_nodes":[],"categories_segments":[],"categories_sizes":[],"default_left":[0,0,0,0,0,0,0,0,0,0,0,0,0,0,0,0,0,0,0,0,0,0,0,0,0,0,0,0,0,0,0,0,0,0,0,0,0,0,0,0,0,0,0,0,0,0,0,0,0,0,0,0,0,0,0,0,0,0,0,0,0,0,0,0,0,0,0,0,0,0,0,0,0,0,0,0,0,0,0,0,0,0,0,0,0,0,0,0,0,0,0,0,0,0,0,0,0,0,0,0,0,0,0,0,0,0,0,0,0,0,0],"id":3,"left_children":[1,3,5,7,9,11,13,15,17,19,21,23,25,27,29,31,33,35,37,39,41,43,45,-1,-1,47,49,51,53,55,57,59,61,63,65,67,69,71,73,75,77,79,81,83,85,87,89,91,93,-1,-1,95,97,99,101,103,105,107,109,-1,-1,-1,-1,-1,-1,-1,-1,-1,-1,-1,-1,-1,-1,-1,-1,-1,-1,-1,-1,-1,-1,-1,-1,-1,-1,-1,-1,-1,-1,-1,-1,-1,-1,-1,-1,-1,-1,-1,-1,-1,-1,-1,-1,-1,-1,-1,-1,-1,-1,-1,-1],"loss_changes":[6.7388884E13,2.7425505E12,5.6465818E10,6.1248766E10,5.800177E11,1.8976604E9,2.4540873E10,5.9263816E9,2.7126858E10,4.426249E10,1.8553084E11,1.833042E8,9.859236E8,1.9228787E10,1.7672765E9,5.458007E8,8.1862656E8,8.31608E9,7.748485E9,1.8351129E10,4.0629174E10,1.8248158E11,4.3595596E10,0E0,0E0,1.2839813E9,1.1501568E7,9.9405005E8,1.9805503E10,1.1365171E9,1.3295882E9,1.2056448E7,1.6120653E8,1.710965E8,1.4568253E9,6.9177395E8,7.3285673E9,1.7098588E9,5.0173706E9,8.4255703E9,6.8023747E9,5.2377944E10,1.3673431E10,5.597823E10,6.228751E10,3.60081E10,1.1338711E10,1.4660403E8,1.0046669E8,0E0,0E0,5.700321E8,1.3405389E8,3.3009172E9,3.609959E10,3.79478E8,1.9640934E8,1.2785111E9,2.7799526E8,0E0,0E0,0E0,0E0,0E0,0E0,0E0,0E0,0E0,0E0,0E0,0E0,0E0,0E0,0E0,0E0,0E0,0E0,0E0,0E0,0E0,0E0,0E0,0E0,0E0,0E0,0E0,0E0,0E0,0E0,0E0,0E0,0E0,0E0,0E0,0E0,0E0,0E0,0E0,0E0,0E0,0E0,0E0,0E0,0E0,0E0,0E0,0E0,0E0,0E0,0E0,0E0],"parents":[2147483647,0,0,1,1,2,2,3,3,4,4,5,5,6,6,7,7,8,8,9,9,10,10,11,11,12,12,13,13,14,14,15,15,16,16,17,17,18,18,19,19,20,20,21,21,22,22,25,25,26,26,27,27,28,28,29,29,30,30,31,31,32,32,33,33,34,34,35,35,36,36,37,37,38,38,39,39,40,40,41,41,42,42,43,43,44,44,45,45,46,46,47,47,48,48,51,51,52,52,53,53,54,54,55,55,56,56,57,57,58,58],"right_children":[2,4,6,8,10,12,14,16,18,20,22,24,26,28,30,32,34,36,38,40,42,44,46,-1,-1,48,50,52,54,56,58,60,62,64,66,68,70,72,74,76,78,80,82,84,86,88,90,92,94,-1,-1,96,98,100,102,104,106,108,110,-1,-1,-1,-1,-1,-1,-1,-1,-1,-1,-1,-1,-1,-1,-1,-1,-1,-1,-1,-1,-1,-1,-1,-1,-1,-1,-1,-1,-1,-1,-1,-1,-1,-1,-1,-1,-1,-1,-1,-1,-1,-1,-1,-1,-1,-1,-1,-1,-1,-1,-1,-1],"split_conditions":[1E0,4.67E0,2.58E0,2.08E0,2E0,1.83E0,2.85E1,1.67E0,2E0,2E0,4E0,1.33E0,5E0,1E0,2E0,2E0,1.92E0,2.5E0,2.17E0,2E0,2E0,4E0,1E0,-1.1705002E3,-1.1232476E3,3E0,2.42E0,5E0,1E0,1E0,4E0,5E0,1.58E0,5E0,5E0,3E0,1E0,2E0,3.5E0,4.92E0,2E0,3E0,5.5E0,1E0,2E0,1.792E1,3E0,2.33E0,2.42E0,-1.1370387E3,-1.0314426E3,1E0,5.08E0,4E0,5.33E0,2E0,5E0,1E0,2.983E1,-6.062309E2,-3.0015912E2,-2.8919244E2,-1.6869922E2,6.2724617E1,-5.7278816E1,1.6887726E2,1.0356177E3,2.8848508E2,1.4959186E2,1.1398328E2,6.3982263E2,2.4343138E2,5.796363E2,8.069498E2,1.3208998E3,7.053757E2,1.9633145E3,2.4948354E3,2.1791567E3,1.6129518E3,2.1791638E3,9.526095E2,1.7657231E3,2.1243008E3,3.4385818E3,2.7606997E3,2.3721216E3,2.738826E3,2.4319827E3,4.1787896E3,3.1141196E3,-1.1205675E3,-1.0629694E3,-1.0451509E3,-9.9592053E2,-9.867924E2,-1.0429695E3,-9.9619464E2,-1.1082592E3,-9.503045E2,-9.208916E2,-9.946711E2,-7.042548E2,-8.578212E2,-7.264362E2,-5.593146E2,-7.451249E2,-7.5155536E2,-4.896234E2,-5.6608997E2,-2.5060509E2],"split_indices":[6,7,7,7,0,7,7,7,0,1,5,7,0,0,0,5,7,7,7,2,5,1,3,0,0,0,7,2,3,3,5,2,7,2,2,1,3,5,7,7,5,1,7,3,5,7,1,7,7,0,0,5,7,1,7,4,1,2,7,0,0,0,0,0,0,0,0,0,0,0,0,0,0,0,0,0,0,0,0,0,0,0,0,0,0,0,0,0,0,0,0,0,0,0,0,0,0,0,0,0,0,0,0,0,0,0,0,0,0,0,0],"split_type":[0,0,0,0,0,0,0,0,0,0,0,0,0,0,0,0,0,0,0,0,0,0,0,0,0,0,0,0,0,0,0,0,0,0,0,0,0,0,0,0,0,0,0,0,0,0,0,0,0,0,0,0,0,0,0,0,0,0,0,0,0,0,0,0,0,0,0,0,0,0,0,0,0,0,0,0,0,0,0,0,0,0,0,0,0,0,0,0,0,0,0,0,0,0,0,0,0,0,0,0,0,0,0,0,0,0,0,0,0,0,0],"sum_hessian":[2.15814E5,6.7289E4,1.48525E5,6.234E3,6.1055E4,1.4726E4,1.33799E5,1.177E3,5.057E3,2.1188E4,3.9867E4,4.502E3,1.0224E4,1.31694E5,2.105E3,3.69E2,8.08E2,2.09E3,2.967E3,6.017E3,1.5171E4,2.6178E4,1.3689E4,1.998E3,2.504E3,8.065E3,2.159E3,1.0368E4,1.21326E5,1.476E3,6.29E2,3.5E1,3.34E2,4.93E2,3.15E2,9.32E2,1.158E3,4.46E2,2.521E3,2.576E3,3.441E3,5.426E3,9.745E3,1.5433E4,1.0745E4,1.3388E4,3.01E2,3.326E3,4.739E3,2.031E3,1.28E2,8.403E3,1.965E3,1.10086E5,1.124E4,1.096E3,3.8E2,5.04E2,1.25E2,3.1E1,4E0,2.21E2,1.13E2,4E2,9.3E1,3.03E2,1.2E1,5.02E2,4.3E2,2.07E2,9.51E2,1.46E2,3E2,2.391E3,1.3E2,3.6E1,2.54E3,5.86E2,2.855E3,1.44E3,3.986E3,1.38E2,9.607E3,1.5221E4,2.12E2,5.546E3,5.199E3,1.0017E4,3.371E3,1.47E2,1.54E2,2.439E3,8.87E2,3.873E3,8.66E2,1.939E3,6.464E3,1.8E2,1.785E3,7.0146E4,3.994E4,4.778E3,6.462E3,2.15E2,8.81E2,3.27E2,5.3E1,2.21E2,2.83E2,2.2E1,1.03E2],"tree_param":{"num_deleted":"0","num_feature":"9","num_nodes":"111","size_leaf_vector":"1"}},{"base_weights":[-9.013773E0,2.417268E4,-1.0927798E4,5.8714517E3,2.605322E4,-7.8223916E3,-1.2052306E4,-1.4565407E2,7.221947E3,2.2150938E4,2.8139182E4,-1.0358655E4,-7.382843E3,-1.3405975E4,-1.1920628E4,-3.2566567E3,1.2324258E3,4.5991514E3,9.042823E3,2.428136E4,2.130605E4,3.6090734E4,2.7600283E4,-1.0912297E4,-9.540083E3,-4.4883164E3,-7.810392E3,-1.1166213E3,-1.3301774E4,-1.078648E4,-1.1990397E4,-6.754381E3,-2.8748464E3,4.705558E2,2.434115E3,2.5883643E3,6.176486E3,8.662225E3,1.6064708E4,1.3091765E4,2.4531848E4,2.339236E4,2.0143436E4,4.0544047E4,3.311371E4,2.6163113E4,3.0333898E4,-9.497933E3,-1.1116146E4,-7.841671E3,-9.801057E3,-4.0669102E3,-5.851954E3,-7.2389404E3,-8.483647E3,-1.3164921E4,-1.1019552E3,-1.0865827E4,-7.0168696E3,-1.235808E4,-1.1813978E4,-5.586567E2,-2.6338968E2,-2.6028918E2,-1.6455115E2,3.1646115E2,2.6317156E1,1.6061443E2,9.591413E2,2.7044235E2,1.3674394E2,5.7593195E2,1.1760816E2,4.3620886E2,7.39888E2,1.8630228E3,7.941836E2,1.300115E3,4.2081967E2,2.2563635E3,1.9064266E3,1.4891038E3,2.0087422E3,8.791264E2,1.6214856E3,3.0942815E3,3.5310222E3,2.5113496E3,2.8993684E3,1.9357213E3,2.3207957E3,2.5083665E3,2.1759558E3,-8.4087366E2,-7.26622E2,-9.6390265E2,-8.663765E2,-5.614922E2,-6.723451E2,-7.706569E2,-8.4760815E2,-6.049677E2,-3.0988797E2,-5.87266E2,-3.8388324E2,-5.3470825E2,-6.0035583E2,-8.38187E2,-6.646264E2,-1.1013867E3,-1.0395212E3,-8.572367E2,-9.3746326E2,-4.173586E2,-6.5228375E2,-9.9280054E2,-8.370495E2,-8.7744904E2,-9.595246E2],"categories":[],"categories_nodes":[],"categories_segments":[],"categories_sizes":[],"default_left":[0,0,0,0,0,0,0,0,0,0,0,0,0,0,0,0,0,0,0,0,0,0,0,0,0,0,0,0,0,0,0,0,0,0,0,0,0,0,0,0,0,0,0,0,0,0,0,0,0,0,0,0,0,0,0,0,0,0,0,0,0,0,0,0,0,0,0,0,0,0,0,0,0,0,0,0,0,0,0,0,0,0,0,0,0,0,0,0,0,0,0,0,0,0,0,0,0,0,0,0,0,0,0,0,0,0,0,0,0,0,0,0,0,0,0,0,0,0,0],"id":4,"left_children":[1,3,5,7,9,11,13,15,17,19,21,23,25,27,29,31,33,35,37,39,41,43,45,47,49,51,53,-1,55,57,59,61,63,65,67,69,71,73,75,77,79,81,83,85,87,89,91,93,95,97,99,101,103,105,107,109,-1,111,113,115,117,-1,-1,-1,-1,-1,-1,-1,-1,-1,-1,-1,-1,-1,-1,-1,-1,-1,-1,-1,-1,-1,-1,-1,-1,-1,-1,-1,-1,-1,-1,-1,-1,-1,-1,-1,-1,-1,-1,-1,-1,-1,-1,-1,-1,-1,-1,-1,-1,-1,-1,-1,-1,-1,-1,-1,-1,-1,-1],"loss_changes":[5.7038617E13,2.3126176E12,5.1961974E11,5.0894668E10,4.954144E11,4.4034425E10,1.931477E10,4.930018E9,2.4386535E10,3.77005E10,1.6915209E11,2.5433866E9,4.1703834E10,3.708027E8,7.751074E9,4.520018E8,7.2853286E8,6.638203E9,7.926481E9,1.6557801E10,3.6424385E10,3.2026919E10,1.4531795E11,8.972206E8,9.7142374E8,2.4718868E9,1.1244012E10,0E0,3.4668544E8,1.6528835E9,5.9391345E9,3.94368E6,9.244877E7,2.4000816E8,1.2349955E9,6.376627E8,5.644751E9,5.34161E9,6.595793E9,3.2303493E9,1.4500758E10,4.4139807E10,1.0974396E10,5.02399E9,7.017595E9,1.3580842E11,4.0125858E10,9.167667E7,6.800343E8,8.91945E7,1.706066E8,2.2145597E9,1.5692431E9,2.2933668E9,4.6398177E9,4.75136E8,0E0,5.999821E8,2.0706202E8,2.8610396E9,9.527362E9,0E0,0E0,0E0,0E0,0E0,0E0,0E0,0E0,0E0,0E0,0E0,0E0,0E0,0E0,0E0,0E0,0E0,0E0,0E0,0E0,0E0,0E0,0E0,0E0,0E0,0E0,0E0,0E0,0E0,0E0,0E0,0E0,0E0,0E0,0E0,0E0,0E0,0E0,0E0,0E0,0E0,0E0,0E0,0E0,0E0,0E0,0E0,0E0,0E0,0E0,0E0,0E0,0E0,0E0,0E0,0E0,0E0,0E0],"parents":[2147483647,0,0,1,1,2,2,3,3,4,4,5,5,6,6,7,7,8,8,9,9,10,10,11,11,12,12,13,13,14,14,15,15,16,16,17,17,18,18,19,19,20,20,21,21,22,22,23,23,24,24,25,25,26,26,28,28,29,29,30,30,31,31,32,32,33,33,34,34,35,35,36,36,37,37,38,38,39,39,40,40,41,41,42,42,43,43,44,44,45,45,46,46,47,47,48,48,49,49,50,50,51,51,52,52,53,53,54,54,55,55,57,57,58,58,59,59,60,60],"right_children":[2,4,6,8,10,12,14,16,18,20,22,24,26,28,30,32,34,36,38,40,42,44,46,48,50,52,54,-1,56,58,60,62,64,66,68,70,72,74,76,78,80,82,84,86,88,90,92,94,96,98,100,102,104,106,108,110,-1,112,114,116,118,-1,-1,-1,-1,-1,-1,-1,-1,-1,-1,-1,-1,-1,-1,-1,-1,-1,-1,-1,-1,-1,-1,-1,-1,-1,-1,-1,-1,-1,-1,-1,-1,-1,-1,-1,-1,-1,-1,-1,-1,-1,-1,-1,-1,-1,-1,-1,-1,-1,-1,-1,-1,-1,-1,-1,-1,-1,-1],"split_conditions":[1E0,4.75E0,1.6E1,2.08E0,2E0,4.25E0,2.42E0,1.67E0,2E0,2E0,6E0,2.42E0,4E0,1.33E0,1.8E1,2E0,1.92E0,2.5E0,3.5E0,5.67E0,2E0,4E0,4E0,4E0,4E0,5E0,1.1E1,-1.1166213E3,5E0,2.85E1,2E0,5E0,1.58E0,5E0,5E0,3E0,3.5E0,2.17E0,1E0,4E0,2E0,3E0,5.5E0,4E0,4E0,4E0,1.792E1,3E0,1.58E0,3E0,3.5E0,1E0,3E0,2E0,1E0,2E0,-1.1019552E3,5E0,2E0,2.85E1,3E0,-5.586567E2,-2.6338968E2,-2.6028918E2,-1.6455115E2,3.1646115E2,2.6317156E1,1.6061443E2,9.591413E2,2.7044235E2,1.3674394E2,5.7593195E2,1.1760816E2,4.3620886E2,7.39888E2,1.8630228E3,7.941836E2,1.300115E3,4.2081967E2,2.2563635E3,1.9064266E3,1.4891038E3,2.0087422E3,8.791264E2,1.6214856E3,3.0942815E3,3.5310222E3,2.5113496E3,2.8993684E3,1.9357213E3,2.3207957E3,2.5083665E3,2.1759558E3,-8.4087366E2,-7.26622E2,-9.6390265E2,-8.663765E2,-5.614922E2,-6.723451E2,-7.706569E2,-8.4760815E2,-6.049677E2,-3.0988797E2,-5.87266E2,-3.8388324E2,-5.3470825E2,-6.0035583E2,-8.38187E2,-6.646264E2,-1.1013867E3,-1.0395212E3,-8.572367E2,-9.3746326E2,-4.173586E2,-6.5228375E2,-9.9280054E2,-8.370495E2,-8.7744904E2,-9.595246E2],"split_indices":[6,7,8,7,0,7,7,7,0,1,8,7,8,7,8,5,7,7,7,7,5,8,5,8,8,1,8,0,0,7,0,2,7,8,2,1,7,7,1,5,5,1,7,1,5,1,7,0,7,4,7,0,0,0,0,0,0,2,5,7,0,0,0,0,0,0,0,0,0,0,0,0,0,0,0,0,0,0,0,0,0,0,0,0,0,0,0,0,0,0,0,0,0,0,0,0,0,0,0,0,0,0,0,0,0,0,0,0,0,0,0,0,0,0,0,0,0,0,0],"split_type":[0,0,0,0,0,0,0,0,0,0,0,0,0,0,0,0,0,0,0,0,0,0,0,0,0,0,0,0,0,0,0,0,0,0,0,0,0,0,0,0,0,0,0,0,0,0,0,0,0,0,0,0,0,0,0,0,0,0,0,0,0,0,0,0,0,0,0,0,0,0,0,0,0,0,0,0,0,0,0,0,0,0,0,0,0,0,0,0,0,0,0,0,0,0,0,0,0,0,0,0,0,0,0,0,0,0,0,0,0,0,0,0,0,0,0,0,0,0,0],"sum_hessian":[2.16025E5,6.7199E4,1.48826E5,6.262E3,6.0937E4,3.9567E4,1.09259E5,1.148E3,5.114E3,2.1231E4,3.9706E4,5.841E3,3.3726E4,9.677E3,9.9582E4,3.52E2,7.96E2,2.097E3,3.017E3,6.021E3,1.521E4,2.516E3,3.719E4,3.477E3,2.364E3,4.342E3,2.9384E4,1.516E3,8.161E3,5.78E3,9.3802E4,3.3E1,3.19E2,4.88E2,3.08E2,9.23E2,1.174E3,2.864E3,1.53E2,1.33E2,5.888E3,5.436E3,9.774E3,1.003E3,1.513E3,2.4382E4,1.2808E4,4.44E2,3.033E3,3.19E2,2.045E3,3.32E3,1.022E3,1.59E4,1.3484E4,6.351E3,1.81E3,5.659E3,1.21E2,3.0392E4,6.341E4,3E1,3E0,2.16E2,1.03E2,1.8E1,4.7E2,2.96E2,1.2E1,4.84E2,4.39E2,9.64E2,2.1E2,4.44E2,2.42E3,6.9E1,8.4E1,9.4E1,3.9E1,9.38E2,4.95E3,1.44E3,3.996E3,1.33E2,9.641E3,6.68E2,3.35E2,9.83E2,5.3E2,1.4426E4,9.956E3,9.655E3,3.153E3,1.22E2,3.22E2,7.03E2,2.33E3,1.35E2,1.84E2,1.699E3,3.46E2,1.72E2,3.148E3,4.21E2,6.01E2,5.153E3,1.0747E4,1.088E3,1.2396E4,1.386E3,4.965E3,4.822E3,8.37E2,4.9E1,7.2E1,2.9576E4,8.16E2,1.1141E4,5.2269E4],"tree_param":{"num_deleted":"0","num_feature":"9","num_nodes":"119","size_leaf_vector":"1"}},{"base_weights":[8.513851E0,2.225554E4,-1.0051524E4,5.3710215E3,2.3983559E4,-7.1883325E3,-1.1087309E4,-1.694558E2,6.6578613E3,2.0388748E4,2.589449E4,-9.540402E3,-6.7764683E3,-1.233048E4,-1.0966056E4,-2.991846E3,1.1403995E3,4.2347427E3,8.365819E3,2.2318951E4,1.9623738E4,3.33139E4,2.5392254E4,-1.0053071E4,-8.774188E3,-4.1400684E3,-7.17058E3,-1.2501077E4,-1.2044051E4,-1.0526012E4,-1.1125834E4,-6.1912954E3,-2.6432559E3,4.422411E2,2.2501943E3,2.3689126E3,5.7056636E3,1.2409499E4,7.8217275E3,2.0349014E4,2.378919E4,1.8026309E4,2.1028256E4,3.7364305E4,3.0555686E4,2.4062398E4,2.7947645E4,-8.765111E3,-1.0238884E4,-7.2276045E3,-9.021829E3,-4.357898E3,-1.795774E3,-7.3592407E3,-5.0325303E3,-1.0174438E3,-1.2303197E4,-9.01161E2,-9.846381E2,-9.914216E3,-1.0696407E4,-1.1211175E4,-1.0440932E4,-5.1595215E2,-2.6409198E2,-2.4127072E2,-1.5207294E2,4.0489056E2,2.6163792E1,1.4861797E2,8.883125E2,2.4688959E2,1.24050545E2,9.534187E1,5.397155E2,1.7161101E3,8.096845E2,1.0256288E3,5.962181E2,1.6869224E3,1.2455001E3,9.2936145E2,1.9143345E3,1.8675018E3,1.4222491E3,1.9008528E3,1.5541287E3,2.8516758E3,3.2501965E3,2.571149E3,2.1576892E3,1.7787854E3,2.1357644E3,2.3070835E3,2.0003846E3,-7.6910406E2,-6.739834E2,-8.881781E2,-7.977054E2,-5.13594E2,-6.030742E2,-7.824663E2,-7.0776337E2,-3.168153E2,-4.5192712E2,-6.3761E2,-8.259746E1,-5.482855E2,-6.3634064E2,-6.9706476E2,-3.5327963E2,-9.1369904E2,-9.950333E2,-7.991345E2,-5.0998682E2,-8.6346796E2,-7.929344E2,-9.220049E2,-8.8487524E2,-9.099195E2,-7.593278E2],"categories":[],"categories_nodes":[],"categories_segments":[],"categories_sizes":[],"default_left":[0,0,0,0,0,0,0,0,0,0,0,0,0,0,0,0,0,0,0,0,0,0,0,0,0,0,0,0,0,0,0,0,0,0,0,0,0,0,0,0,0,0,0,0,0,0,0,0,0,0,0,0,0,0,0,0,0,0,0,0,0,0,0,0,0,0,0,0,0,0,0,0,0,0,0,0,0,0,0,0,0,0,0,0,0,0,0,0,0,0,0,0,0,0,0,0,0,0,0,0,0,0,0,0,0,0,0,0,0,0,0,0,0,0,0,0,0,0,0,0,0],"id":5,"left_children":[1,3,5,7,9,11,13,15,17,19,21,23,25,27,29,31,33,35,37,39,41,43,45,47,49,51,53,55,57,59,61,63,65,67,69,71,73,75,77,79,81,83,85,87,89,91,93,95,97,99,101,103,105,107,109,-1,111,-1,-1,113,115,117,119,-1,-1,-1,-1,-1,-1,-1,-1,-1,-1,-1,-1,-1,-1,-1,-1,-1,-1,-1,-1,-1,-1,-1,-1,-1,-1,-1,-1,-1,-1,-1,-1,-1,-1,-1,-1,-1,-1,-1,-1,-1,-1,-1,-1,-1,-1,-1,-1,-1,-1,-1,-1,-1,-1,-1,-1,-1,-1],"loss_changes":[4.837453E13,1.9636158E12,4.4132676E11,4.4561793E10,4.1889353E11,3.824196E10,1.633996E10,4.3620833E9,2.095548E10,3.086064E10,1.4768564E11,2.2254387E9,3.493803E10,3.2374784E8,6.8859986E9,4.007557E8,6.235038E8,5.747163E9,6.4461373E9,1.6919822E10,3.3697038E10,2.7055882E10,1.26215E11,7.531397E8,8.421212E8,2.2283387E9,1.1771838E10,1.0354688E8,6.122373E8,2.661286E9,4.152361E9,5.564288E6,8.80407E7,2.6225008E8,1.06003904E9,5.3924966E8,5.502677E9,7.045722E9,4.7444296E9,8.749908E9,5.5752786E9,8.972403E9,3.488193E10,4.259971E9,7.688159E9,1.1768693E11,3.2770097E10,4.926669E7,5.989335E8,3.494912E7,1.8384486E8,2.0347699E9,1.7544026E9,8.039301E9,5.3557166E9,0E0,2.3789568E8,0E0,0E0,1.4744945E9,1.4716764E9,2.93444E9,7.0740214E9,0E0,0E0,0E0,0E0,0E0,0E0,0E0,0E0,0E0,0E0,0E0,0E0,0E0,0E0,0E0,0E0,0E0,0E0,0E0,0E0,0E0,0E0,0E0,0E0,0E0,0E0,0E0,0E0,0E0,0E0,0E0,0E0,0E0,0E0,0E0,0E0,0E0,0E0,0E0,0E0,0E0,0E0,0E0,0E0,0E0,0E0,0E0,0E0,0E0,0E0,0E0,0E0,0E0,0E0,0E0,0E0,0E0,0E0],"parents":[2147483647,0,0,1,1,2,2,3,3,4,4,5,5,6,6,7,7,8,8,9,9,10,10,11,11,12,12,13,13,14,14,15,15,16,16,17,17,18,18,19,19,20,20,21,21,22,22,23,23,24,24,25,25,26,26,27,27,28,28,29,29,30,30,31,31,32,32,33,33,34,34,35,35,36,36,37,37,38,38,39,39,40,40,41,41,42,42,43,43,44,44,45,45,46,46,47,47,48,48,49,49,50,50,51,51,52,52,53,53,54,54,56,56,59,59,60,60,61,61,62,62],"right_children":[2,4,6,8,10,12,14,16,18,20,22,24,26,28,30,32,34,36,38,40,42,44,46,48,50,52,54,56,58,60,62,64,66,68,70,72,74,76,78,80,82,84,86,88,90,92,94,96,98,100,102,104,106,108,110,-1,112,-1,-1,114,116,118,120,-1,-1,-1,-1,-1,-1,-1,-1,-1,-1,-1,-1,-1,-1,-1,-1,-1,-1,-1,-1,-1,-1,-1,-1,-1,-1,-1,-1,-1,-1,-1,-1,-1,-1,-1,-1,-1,-1,-1,-1,-1,-1,-1,-1,-1,-1,-1,-1,-1,-1,-1,-1,-1,-1,-1,-1,-1,-1],"split_conditions":[1E0,4.75E0,1.6E1,2.08E0,2E0,4.25E0,2.42E0,1.67E0,2E0,2E0,6E0,2.42E0,4E0,4E0,2.5E1,2E0,1.92E0,2.5E0,1E0,2E0,4E0,4E0,4E0,4E0,4E0,1E0,1E0,4E0,5E0,1.8E1,1E0,5E0,1.58E0,4E0,5E0,3E0,1E0,1E0,6E0,2.183E1,6.08E0,4E0,2E0,4E0,1.775E1,4E0,1.817E1,3E0,1.58E0,2E0,1E0,5E0,1E0,1.1E1,1E0,-1.0174438E3,5E0,-9.01161E2,-9.846381E2,2.85E1,1E0,2E0,8.08E0,-5.1595215E2,-2.6409198E2,-2.4127072E2,-1.5207294E2,4.0489056E2,2.6163792E1,1.4861797E2,8.883125E2,2.4688959E2,1.24050545E2,9.534187E1,5.397155E2,1.7161101E3,8.096845E2,1.0256288E3,5.962181E2,1.6869224E3,1.2455001E3,9.2936145E2,1.9143345E3,1.8675018E3,1.4222491E3,1.9008528E3,1.5541287E3,2.8516758E3,3.2501965E3,2.571149E3,2.1576892E3,1.7787854E3,2.1357644E3,2.3070835E3,2.0003846E3,-7.6910406E2,-6.739834E2,-8.881781E2,-7.977054E2,-5.13594E2,-6.030742E2,-7.824663E2,-7.0776337E2,-3.168153E2,-4.5192712E2,-6.3761E2,-8.259746E1,-5.482855E2,-6.3634064E2,-6.9706476E2,-3.5327963E2,-9.1369904E2,-9.950333E2,-7.991345E2,-5.0998682E2,-8.6346796E2,-7.929344E2,-9.220049E2,-8.8487524E2,-9.099195E2,-7.593278E2],"split_indices":[6,7,8,7,0,7,7,7,0,1,8,7,8,5,8,5,7,7,1,2,1,8,5,8,8,3,3,1,5,8,3,2,7,8,2,1,3,3,8,7,7,8,5,1,7,1,7,0,7,1,3,1,0,8,0,0,1,0,0,7,3,0,7,0,0,0,0,0,0,0,0,0,0,0,0,0,0,0,0,0,0,0,0,0,0,0,0,0,0,0,0,0,0,0,0,0,0,0,0,0,0,0,0,0,0,0,0,0,0,0,0,0,0,0,0,0,0,0,0,0,0],"split_type":[0,0,0,0,0,0,0,0,0,0,0,0,0,0,0,0,0,0,0,0,0,0,0,0,0,0,0,0,0,0,0,0,0,0,0,0,0,0,0,0,0,0,0,0,0,0,0,0,0,0,0,0,0,0,0,0,0,0,0,0,0,0,0,0,0,0,0,0,0,0,0,0,0,0,0,0,0,0,0,0,0,0,0,0,0,0,0,0,0,0,0,0,0,0,0,0,0,0,0,0,0,0,0,0,0,0,0,0,0,0,0,0,0,0,0,0,0,0,0,0,0],"sum_hessian":[2.16143E5,6.7304E4,1.48839E5,6.249E3,6.1055E4,3.9542E4,1.09297E5,1.178E3,5.071E3,2.1195E4,3.986E4,5.889E3,3.3653E4,9.704E3,9.9593E4,3.73E2,8.05E2,2.098E3,2.973E3,6.008E3,1.5187E4,2.523E3,3.7337E4,3.521E3,2.368E3,4.378E3,2.9275E4,6.055E3,3.649E3,2.6547E4,7.3046E4,3.5E1,3.38E2,4.95E2,3.1E2,9.26E2,1.172E3,3.5E2,2.623E3,2.574E3,3.434E3,7.112E3,8.075E3,1.017E3,1.506E3,2.4564E4,1.2773E4,4.5E2,3.071E3,3.31E2,2.037E3,4.005E3,3.73E2,2.6899E4,2.376E3,2.858E3,3.197E3,9.34E2,2.715E3,5.796E3,2.0751E4,6.4939E4,8.107E3,3.1E1,4E0,2.23E2,1.15E2,1.1E1,4.84E2,2.98E2,1.2E1,4.92E2,4.34E2,2.2E2,9.52E2,6.9E1,2.81E2,1.78E2,2.445E3,2.227E3,3.47E2,4E1,3.394E3,3.13E2,6.799E3,2.979E3,5.096E3,6.74E2,3.43E2,1.039E3,4.67E2,1.4509E4,1.0055E4,9.798E3,2.975E3,1.21E2,3.29E2,7.17E2,2.354E3,9.8E1,2.33E2,3.71E2,1.666E3,3.065E3,9.4E2,4E1,3.33E2,1.4548E4,1.2351E4,3.39E2,2.037E3,4.35E2,2.762E3,5.674E3,1.22E2,1.8458E4,2.293E3,2.0996E4,4.3943E4,4.083E3,4.024E3],"tree_param":{"num_deleted":"0","num_feature":"9","num_nodes":"121","size_leaf_vector":"1"}},{"base_weights":[1.0115637E1,2.0481467E4,-9.246339E3,5.3990337E3,2.2116516E4,-6.615527E3,-1.0200938E4,-1.5512338E2,6.5770303E3,1.8810912E4,2.3866988E4,-8.783068E3,-6.2373384E3,-1.1346924E4,-1.0089707E4,-2.7804995E3,1.0082537E3,5.85982E3,1.3234473E4,2.0688018E4,1.8068516E4,3.0652066E4,2.3406748E4,-9.228265E3,-8.018232E3,-3.767957E3,-6.608101E3,-9.4580054E2,-1.125769E4,-1.0113538E4,-7.477185E3,-5.7706694E3,-2.4447607E3,3.8469833E2,2.0063141E3,3.7930737E3,7.334637E3,1.5913774E4,8.153417E3,1.8322941E4,2.1805902E4,1.6572344E4,1.93886E4,3.4317582E4,2.8171E4,2.2195184E4,2.5704326E4,-8.031309E3,-9.404079E3,-6.6494473E3,-8.23246E3,-3.4069546E3,-4.9547085E3,-6.121453E3,-7.1780605E3,-1.1129594E4,-9.3538226E2,-9.710368E3,-1.0259432E4,-8.316348E3,-5.944583E3,-1.1140594E2,-4.686783E2,2.9281393E1,-2.0519807E2,2.9016876E2,2.1466736E1,1.3077895E2,8.2271405E2,6.765519E2,2.639331E2,3.5711398E2,6.286209E2,1.5008854E3,6.135696E2,4.900641E2,6.884184E2,1.9281636E3,1.01437695E3,1.8362327E3,1.6315513E3,1.7063679E3,1.3081923E3,1.7581183E3,1.4065754E3,3.1062544E3,2.661365E3,1.8240067E3,2.3242112E3,1.3761323E3,1.8455443E3,2.124972E3,1.8427151E3,-5.6106287E2,-6.6824817E2,-8.179967E2,-7.329517E2,-4.77736E2,-5.6816113E2,-6.456727E2,-7.1579474E2,-5.149624E2,-2.593193E2,-5.0719736E2,-3.225721E2,-5.090327E2,-4.4371127E2,-7.1797656E2,-5.6135657E2,-9.356345E2,-8.776242E2,-7.340816E2,-7.887165E2,-8.478762E2,-8.078835E2,-4.3040875E2,-6.782155E2,-5.4493604E2,-1.422824E2],"categories":[],"categories_nodes":[],"categories_segments":[],"categories_sizes":[],"default_left":[0,0,0,0,0,0,0,0,0,0,0,0,0,0,0,0,0,0,0,0,0,0,0,0,0,0,0,0,0,0,0,0,0,0,0,0,0,0,0,0,0,0,0,0,0,0,0,0,0,0,0,0,0,0,0,0,0,0,0,0,0,0,0,0,0,0,0,0,0,0,0,0,0,0,0,0,0,0,0,0,0,0,0,0,0,0,0,0,0,0,0,0,0,0,0,0,0,0,0,0,0,0,0,0,0,0,0,0,0,0,0,0,0,0,0,0,0,0,0],"id":6,"left_children":[1,3,5,7,9,11,13,15,17,19,21,23,25,27,29,31,33,35,37,39,41,43,45,47,49,51,53,-1,55,57,59,61,63,65,67,69,71,73,75,77,79,81,83,85,87,89,91,93,95,97,99,101,103,105,107,109,-1,111,113,115,117,-1,-1,-1,-1,-1,-1,-1,-1,-1,-1,-1,-1,-1,-1,-1,-1,-1,-1,-1,-1,-1,-1,-1,-1,-1,-1,-1,-1,-1,-1,-1,-1,-1,-1,-1,-1,-1,-1,-1,-1,-1,-1,-1,-1,-1,-1,-1,-1,-1,-1,-1,-1,-1,-1,-1,-1,-1,-1],"loss_changes":[4.0921966E13,1.6581279E12,3.7340525E11,4.303944E10,3.505872E11,3.2404406E10,1.3794017E10,3.5213596E9,2.5835225E10,2.89019E10,1.2312799E11,1.9281674E9,3.084583E10,2.7629978E8,6.1173924E9,3.4127846E8,4.9648256E8,1.4910767E10,7.044653E9,1.5323628E10,2.9427237E10,2.1914714E10,1.0282546E11,7.052001E8,5.818614E8,1.8698813E9,8.0871424E9,0E0,3.2322355E8,5.697962E9,1.1119084E9,5.297024E6,1.090665E8,1.850358E8,9.274505E8,4.6781624E9,4.2584146E9,7.931011E9,1.1584922E8,6.2147854E10,6.0614246E9,7.045513E9,3.6992975E10,3.498836E9,6.4687964E9,1.0578978E11,2.8750905E10,9.931776E7,5.482742E8,4.930048E7,1.4411366E8,1.6737485E9,1.2843684E9,2.1613773E9,3.8434243E9,4.4046746E8,0E0,1.9904594E9,3.839361E9,2.2963814E8,1.1547085E9,0E0,0E0,0E0,0E0,0E0,0E0,0E0,0E0,0E0,0E0,0E0,0E0,0E0,0E0,0E0,0E0,0E0,0E0,0E0,0E0,0E0,0E0,0E0,0E0,0E0,0E0,0E0,0E0,0E0,0E0,0E0,0E0,0E0,0E0,0E0,0E0,0E0,0E0,0E0,0E0,0E0,0E0,0E0,0E0,0E0,0E0,0E0,0E0,0E0,0E0,0E0,0E0,0E0,0E0,0E0,0E0,0E0,0E0],"parents":[2147483647,0,0,1,1,2,2,3,3,4,4,5,5,6,6,7,7,8,8,9,9,10,10,11,11,12,12,13,13,14,14,15,15,16,16,17,17,18,18,19,19,20,20,21,21,22,22,23,23,24,24,25,25,26,26,28,28,29,29,30,30,31,31,32,32,33,33,34,34,35,35,36,36,37,37,38,38,39,39,40,40,41,41,42,42,43,43,44,44,45,45,46,46,47,47,48,48,49,49,50,50,51,51,52,52,53,53,54,54,55,55,57,57,58,58,59,59,60,60],"right_children":[2,4,6,8,10,12,14,16,18,20,22,24,26,28,30,32,34,36,38,40,42,44,46,48,50,52,54,-1,56,58,60,62,64,66,68,70,72,74,76,78,80,82,84,86,88,90,92,94,96,98,100,102,104,106,108,110,-1,112,114,116,118,-1,-1,-1,-1,-1,-1,-1,-1,-1,-1,-1,-1,-1,-1,-1,-1,-1,-1,-1,-1,-1,-1,-1,-1,-1,-1,-1,-1,-1,-1,-1,-1,-1,-1,-1,-1,-1,-1,-1,-1,-1,-1,-1,-1,-1,-1,-1,-1,-1,-1,-1,-1,-1,-1,-1,-1,-1,-1],"split_conditions":[1E0,5E0,1.6E1,2.08E0,2E0,4.25E0,2.42E0,1.67E0,4.42E0,2E0,6E0,2.5E0,4E0,1.33E0,2.983E1,2E0,1.92E0,2E0,3E0,3E0,4E0,4E0,4E0,4E0,4E0,5E0,1.1E1,-9.4580054E2,5E0,2.5E1,2E0,3E0,4E0,5E0,5E0,1E0,2.17E0,4E0,4E0,2E0,5E0,4E0,5E0,1E0,2E0,2E0,1.792E1,2E0,1.58E0,3E0,3.5E0,1E0,3E0,9E0,1E0,2E0,-9.3538226E2,1.8E1,2E0,1.7E1,4E0,-1.1140594E2,-4.686783E2,2.9281393E1,-2.0519807E2,2.9016876E2,2.1466736E1,1.3077895E2,8.2271405E2,6.765519E2,2.639331E2,3.5711398E2,6.286209E2,1.5008854E3,6.135696E2,4.900641E2,6.884184E2,1.9281636E3,1.01437695E3,1.8362327E3,1.6315513E3,1.7063679E3,1.3081923E3,1.7581183E3,1.4065754E3,3.1062544E3,2.661365E3,1.8240067E3,2.3242112E3,1.3761323E3,1.8455443E3,2.124972E3,1.8427151E3,-5.6106287E2,-6.6824817E2,-8.179967E2,-7.329517E2,-4.77736E2,-5.6816113E2,-6.456727E2,-7.1579474E2,-5.149624E2,-2.593193E2,-5.0719736E2,-3.225721E2,-5.090327E2,-4.4371127E2,-7.1797656E2,-5.6135657E2,-9.356345E2,-8.776242E2,-7.340816E2,-7.887165E2,-8.478762E2,-8.078835E2,-4.3040875E2,-6.782155E2,-5.4493604E2,-1.422824E2],"split_indices":[6,7,8,7,0,7,7,7,7,1,8,7,8,7,7,5,7,0,1,5,1,8,5,8,8,1,8,0,0,8,0,8,8,8,2,1,7,5,1,5,5,8,1,5,4,4,7,8,7,4,7,0,0,8,0,0,0,8,0,8,5,0,0,0,0,0,0,0,0,0,0,0,0,0,0,0,0,0,0,0,0,0,0,0,0,0,0,0,0,0,0,0,0,0,0,0,0,0,0,0,0,0,0,0,0,0,0,0,0,0,0,0,0,0,0,0,0,0,0],"split_type":[0,0,0,0,0,0,0,0,0,0,0,0,0,0,0,0,0,0,0,0,0,0,0,0,0,0,0,0,0,0,0,0,0,0,0,0,0,0,0,0,0,0,0,0,0,0,0,0,0,0,0,0,0,0,0,0,0,0,0,0,0,0,0,0,0,0,0,0,0,0,0,0,0,0,0,0,0,0,0,0,0,0,0,0,0,0,0,0,0,0,0,0,0,0,0,0,0,0,0,0,0,0,0,0,0,0,0,0,0,0,0,0,0,0,0,0,0,0,0],"sum_hessian":[2.15954E5,6.7242E4,1.48712E5,6.577E3,6.0665E4,3.9596E4,1.09116E5,1.151E3,5.426E3,2.1007E4,3.9658E4,5.879E3,3.3717E4,9.645E3,9.9471E4,3.53E2,7.98E2,4.9E3,5.26E2,5.946E3,1.5061E4,2.515E3,3.7143E4,3.709E3,2.17E3,4.403E3,2.9314E4,1.503E3,8.142E3,9.8569E4,9.02E2,3.4E1,3.19E2,4.92E2,3.06E2,2.042E3,2.858E3,3.43E2,1.83E2,1.914E3,4.032E3,7.066E3,7.995E3,1.01E3,1.505E3,2.4326E4,1.2817E4,4.81E2,3.228E3,2.98E2,1.872E3,3.379E3,1.024E3,1.5819E4,1.3495E4,6.309E3,1.833E3,2.6209E4,7.236E4,5.8E2,3.22E2,1E0,3.3E1,1.3E1,3.06E2,1.6E1,4.76E2,2.94E2,1.2E1,1.94E2,1.848E3,4.42E2,2.416E3,2.54E2,8.9E1,3.6E1,1.47E2,9.44E2,9.7E2,2.216E3,1.816E3,3.08E2,6.758E3,3.282E3,4.713E3,1.84E2,8.26E2,2.16E2,1.289E3,3.627E3,2.0699E4,9.694E3,3.123E3,1.21E2,3.6E2,7.26E2,2.502E3,1.25E2,1.73E2,1.537E3,3.35E2,1.73E2,3.206E3,4.07E2,6.17E2,1.1134E4,4.685E3,1.106E3,1.2389E4,1.37E3,4.939E3,5.716E3,2.0493E4,2.3267E4,4.9093E4,3.2E1,5.48E2,2.66E2,5.6E1],"tree_param":{"num_deleted":"0","num_feature":"9","num_nodes":"119","size_leaf_vector":"1"}},{"base_weights":[1.1044541E1,-3.9191997E3,5.2855684E3,-3.0528076E2,-8.561264E3,6.3263394E3,-1.634434E3,-9.525851E3,1.5290638E3,-6.9280444E3,-9.058468E3,8.845914E3,5.718946E3,1.1294578E3,-2.590059E3,-7.502511E3,-9.998221E3,2.252718E3,-3.6082363E3,-4.8301216E3,-7.2620483E3,-9.91516E3,-8.784147E3,8.03481E3,1.0430002E4,2.6315863E2,5.87497E3,5.9805986E3,-1.2849514E3,-4.82397E3,-1.7611636E3,-6.829888E3,-8.226234E3,-9.480774E3,-1.0083624E4,5.095603E3,1.17529E3,-2.0410725E3,-4.5782783E3,-6.5097026E3,-4.208023E3,-8.305229E3,-7.034794E3,-1.0248368E4,-9.480375E3,-8.55724E3,-9.300502E3,6.605528E3,1.0000362E4,1.2896541E4,9.659988E3,-1.1065502E3,2.6117192E3,6.455551E3,4.0691243E3,9.065379E3,2.3080188E3,-4.629001E3,-2.9014E2,-5.1660327E3,2.7146433E3,-2.8994778E3,7.040173E2,-7.232069E2,-5.292864E2,-6.1536426E2,-7.205866E2,-7.18947E2,-7.8501154E2,-8.646608E2,-8.031325E2,6.408979E2,3.6428687E2,1.3888863E2,-9.232416E1,-4.4552525E1,-2.6760403E2,-3.2075632E2,-5.3401495E2,-6.1149005E2,-4.9731995E2,-2.7793234E2,-4.229089E2,-7.362871E2,-6.3385864E2,-6.263646E2,-5.384331E2,-8.4632935E2,-8.025179E2,-7.7196765E2,-7.352105E2,-7.050766E2,-6.501771E2,-6.7098663E2,-7.836164E2,5.9432666E2,3.400119E2,1.0440426E3,6.980689E2,8.510399E2,1.1771824E3,7.132339E2,9.279481E2,2.1401968E1,-3.7170258E2,-3.5759243E1,2.9205838E2,4.594228E2,6.296809E2,4.3877246E2,1.430689E2,8.470345E1,9.3048254E2,8.5204895E2,5.6410755E1,-5.0402603E2,-2.948288E2,7.893416E1,-5.8877842E1,-2.8609473E2,-5.706117E2,9.996789E2,-4.993473E2,-5.0732745E2,-1.8139316E2,-1.8837776E1,1.9999672E3],"categories":[],"categories_nodes":[],"categories_segments":[],"categories_sizes":[],"default_left":[0,0,0,0,0,0,0,0,0,0,0,0,0,0,0,0,0,0,0,0,0,0,0,0,0,0,0,0,0,0,0,0,0,0,0,0,0,0,0,0,0,0,0,0,0,0,0,0,0,0,0,0,0,0,0,0,0,0,0,0,0,0,0,0,0,0,0,0,0,0,0,0,0,0,0,0,0,0,0,0,0,0,0,0,0,0,0,0,0,0,0,0,0,0,0,0,0,0,0,0,0,0,0,0,0,0,0,0,0,0,0,0,0,0,0,0,0,0,0,0,0,0,0,0,0,0,0],"id":7,"left_children":[1,3,5,7,9,11,13,15,17,19,21,23,25,27,29,31,33,35,37,39,41,43,45,47,49,51,53,55,57,59,61,63,65,67,69,71,73,75,77,79,81,83,85,87,89,91,93,95,97,99,101,103,105,107,109,111,113,115,117,119,121,123,125,-1,-1,-1,-1,-1,-1,-1,-1,-1,-1,-1,-1,-1,-1,-1,-1,-1,-1,-1,-1,-1,-1,-1,-1,-1,-1,-1,-1,-1,-1,-1,-1,-1,-1,-1,-1,-1,-1,-1,-1,-1,-1,-1,-1,-1,-1,-1,-1,-1,-1,-1,-1,-1,-1,-1,-1,-1,-1,-1,-1,-1,-1,-1,-1],"loss_changes":[4.4824013E12,2.0785828E12,6.649406E11,1.1783416E12,4.3979112E10,1.22768065E11,3.1885384E10,1.097361E10,2.1603205E11,8.837333E9,9.683337E9,1.994326E10,5.5046177E10,3.634029E10,1.6601063E10,1.0108682E9,3.1843942E8,1.5600504E11,1.0898203E10,1.7927619E9,2.530607E9,1.362559E9,3.6112957E9,2.8906553E10,9.894101E9,5.7899924E9,6.5888846E10,1.1659383E10,6.891577E9,6.272471E9,1.836549E10,4.798505E8,3.692462E8,1.3212877E8,1.5020851E8,2.208478E10,4.825416E10,5.310591E9,5.258412E9,1.0841088E8,9.89825E8,5.955748E8,2.118189E9,3.0225203E8,1.2671386E8,2.3408148E9,4.2568253E9,1.15567E10,1.6757654E10,4.984881E9,5.7072026E9,5.531448E9,2.1086674E9,4.7950987E10,4.937964E10,1.1491275E10,6.3041746E9,7.259177E8,9.103831E8,7.2345027E9,9.364281E9,9.72594E9,4.7208886E10,0E0,0E0,0E0,0E0,0E0,0E0,0E0,0E0,0E0,0E0,0E0,0E0,0E0,0E0,0E0,0E0,0E0,0E0,0E0,0E0,0E0,0E0,0E0,0E0,0E0,0E0,0E0,0E0,0E0,0E0,0E0,0E0,0E0,0E0,0E0,0E0,0E0,0E0,0E0,0E0,0E0,0E0,0E0,0E0,0E0,0E0,0E0,0E0,0E0,0E0,0E0,0E0,0E0,0E0,0E0,0E0,0E0,0E0,0E0,0E0,0E0,0E0,0E0,0E0],"parents":[2147483647,0,0,1,1,2,2,3,3,4,4,5,5,6,6,7,7,8,8,9,9,10,10,11,11,12,12,13,13,14,14,15,15,16,16,17,17,18,18,19,19,20,20,21,21,22,22,23,23,24,24,25,25,26,26,27,27,28,28,29,29,30,30,31,31,32,32,33,33,34,34,35,35,36,36,37,37,38,38,39,39,40,40,41,41,42,42,43,43,44,44,45,45,46,46,47,47,48,48,49,49,50,50,51,51,52,52,53,53,54,54,55,55,56,56,57,57,58,58,59,59,60,60,61,61,62,62],"right_children":[2,4,6,8,10,12,14,16,18,20,22,24,26,28,30,32,34,36,38,40,42,44,46,48,50,52,54,56,58,60,62,64,66,68,70,72,74,76,78,80,82,84,86,88,90,92,94,96,98,100,102,104,106,108,110,112,114,116,118,120,122,124,126,-1,-1,-1,-1,-1,-1,-1,-1,-1,-1,-1,-1,-1,-1,-1,-1,-1,-1,-1,-1,-1,-1,-1,-1,-1,-1,-1,-1,-1,-1,-1,-1,-1,-1,-1,-1,-1,-1,-1,-1,-1,-1,-1,-1,-1,-1,-1,-1,-1,-1,-1,-1,-1,-1,-1,-1,-1,-1,-1,-1,-1,-1,-1,-1],"split_conditions":[5E0,2E0,1E0,1E0,1.5E1,1.2E1,1.6E1,1.5E1,1E0,4E0,4.25E0,4E0,5.33E0,2E0,2E0,1.1E1,2E1,1.6E1,1.7E1,4.25E0,2.58E0,2.33E0,3.9E1,4E0,1E0,5.08E0,1.817E1,1.45E1,2.08E0,2.983E1,8.83E0,1.83E0,3E0,2E0,2.08E0,4E0,2.358E1,3E0,1.383E1,1.67E0,3E0,1.75E0,3E0,1.83E0,4E0,4E0,3E0,3E0,1E0,5E0,4E0,3E0,2E0,4E0,4E0,2E0,3E0,1.67E0,6E0,8.17E0,2E0,1.92E0,5E0,-7.232069E2,-5.292864E2,-6.1536426E2,-7.205866E2,-7.18947E2,-7.8501154E2,-8.646608E2,-8.031325E2,6.408979E2,3.6428687E2,1.3888863E2,-9.232416E1,-4.4552525E1,-2.6760403E2,-3.2075632E2,-5.3401495E2,-6.1149005E2,-4.9731995E2,-2.7793234E2,-4.229089E2,-7.362871E2,-6.3385864E2,-6.263646E2,-5.384331E2,-8.4632935E2,-8.025179E2,-7.7196765E2,-7.352105E2,-7.050766E2,-6.501771E2,-6.7098663E2,-7.836164E2,5.9432666E2,3.400119E2,1.0440426E3,6.980689E2,8.510399E2,1.1771824E3,7.132339E2,9.279481E2,2.1401968E1,-3.7170258E2,-3.5759243E1,2.9205838E2,4.594228E2,6.296809E2,4.3877246E2,1.430689E2,8.470345E1,9.3048254E2,8.5204895E2,5.6410755E1,-5.0402603E2,-2.948288E2,7.893416E1,-5.8877842E1,-2.8609473E2,-5.706117E2,9.996789E2,-4.993473E2,-5.0732745E2,-1.8139316E2,-1.8837776E1,1.9999672E3],"split_indices":[0,0,3,0,8,8,8,8,3,8,7,5,7,3,1,8,8,8,8,7,7,7,8,1,1,7,7,7,7,7,7,7,1,2,7,8,7,5,7,7,8,7,0,7,1,1,0,5,5,5,1,1,1,1,4,1,8,7,8,7,5,7,5,0,0,0,0,0,0,0,0,0,0,0,0,0,0,0,0,0,0,0,0,0,0,0,0,0,0,0,0,0,0,0,0,0,0,0,0,0,0,0,0,0,0,0,0,0,0,0,0,0,0,0,0,0,0,0,0,0,0,0,0,0,0,0,0],"split_type":[0,0,0,0,0,0,0,0,0,0,0,0,0,0,0,0,0,0,0,0,0,0,0,0,0,0,0,0,0,0,0,0,0,0,0,0,0,0,0,0,0,0,0,0,0,0,0,0,0,0,0,0,0,0,0,0,0,0,0,0,0,0,0,0,0,0,0,0,0,0,0,0,0,0,0,0,0,0,0,0,0,0,0,0,0,0,0,0,0,0,0,0,0,0,0,0,0,0,0,0,0,0,0,0,0,0,0,0,0,0,0,0,0,0,0,0,0,0,0,0,0,0,0,0,0,0,0],"sum_hessian":[2.16224E5,1.23901E5,9.2323E4,6.9666E4,5.4235E4,8.0253E4,1.207E4,1.1559E4,5.8107E4,1.2661E4,4.1574E4,1.5586E4,6.4667E4,3.101E3,8.969E3,2.191E3,9.368E3,5.0933E4,7.174E3,1.741E3,1.092E4,1.0075E4,3.1499E4,1.0312E4,5.274E3,1.798E3,6.2869E4,1.03E3,2.071E3,2.426E3,6.543E3,1.141E3,1.05E3,1.343E3,8.025E3,1.3997E4,3.6936E4,2.744E3,4.43E3,4.68E2,1.273E3,1.947E3,8.973E3,5.691E3,4.384E3,2.1895E4,9.604E3,5.973E3,4.339E3,1.251E3,4.023E3,1.136E3,6.62E2,4.7572E4,1.5297E4,5.59E2,4.71E2,4.74E2,1.597E3,2.321E3,1.05E2,4.476E3,2.067E3,9.7E1,1.044E3,6.3E2,4.2E2,5.51E2,7.92E2,4.5E2,7.575E3,2.192E3,1.1805E4,2.9769E4,7.167E3,1.284E3,1.46E3,3.487E3,9.43E2,9.1E1,3.77E2,7.6E2,5.13E2,5.74E2,1.373E3,2.478E3,6.495E3,2.235E3,3.456E3,2.749E3,1.635E3,1.3708E4,8.187E3,3.381E3,6.223E3,4.424E3,1.549E3,1.276E3,3.063E3,5.61E2,6.9E2,2.911E3,1.112E3,8.19E2,3.17E2,1.68E2,4.94E2,3.1643E4,1.5929E4,9.438E3,5.859E3,1.36E2,4.23E2,7.5E1,3.96E2,1.69E2,3.05E2,4.13E2,1.184E3,1.285E3,1.036E3,5E1,5.5E1,6.93E2,3.783E3,1.991E3,7.6E1],"tree_param":{"num_deleted":"0","num_feature":"9","num_nodes":"127","size_leaf_vector":"1"}},{"base_weights":[-3.478855E0,1.8461299E4,-8.357333E3,5.3058306E3,1.9936078E4,-6.1179497E3,-9.167235E3,2.318775E2,6.339822E3,1.7088248E4,2.1455113E4,-4.237857E3,-6.3960376E3,-8.857329E3,-9.826356E3,-2.134287E3,1.2898206E3,5.5269863E3,1.1997756E4,1.8745457E4,1.6376696E4,2.1239828E4,3.457887E4,-6.4760347E3,-3.7975208E3,-7.7777695E3,-6.154802E3,-9.448958E3,-8.360875E3,-1.013081E4,-8.326251E3,-5.0925415E3,-1.7958712E3,5.937812E3,1.1685211E3,3.6604578E3,6.8760737E3,1.3761652E4,6.5877876E3,5.187451E3,1.8953578E4,1.4436007E4,1.7882176E4,2.7239654E4,2.0844598E4,1.9039489E3,3.5681047E4,-7.011346E3,-5.7074287E3,-4.0142664E3,-1.558664E3,-8.1340747E3,-7.154554E3,-6.353513E3,-3.918492E3,-9.496044E3,-7.6878447E3,-9.150577E3,-8.1089917E3,-9.971224E3,-1.0819478E4,-6.530683E3,-1.0375492E4,-4.2209155E2,-1.8437473E2,-1.740302E2,-8.132224E1,2.5381958E2,5.5169727E2,5.0132465E1,1.6299225E2,-1.516308E2,3.3415338E2,3.3100827E2,5.915431E2,1.2840074E3,5.877885E2,-3.1051605E2,6.303591E2,9.058683E2,7.3410125E0,1.4061028E3,1.6416346E3,1.0765829E3,1.2465731E3,1.630558E3,1.3169978E3,2.4535298E3,1.994435E3,1.5805504E3,1.8324258E3,3.0080938E3,2.08553E3,-5.308776E2,-6.3572076E2,-4.8627203E2,-3.8099237E2,-2.8852927E2,-4.2690402E2,-4.955776E2,-8.299721E1,-6.3348816E2,-7.122534E2,-6.230531E2,-5.59233E2,-4.9852124E2,-6.0766016E2,-5.354125E2,-2.7716364E2,-6.807188E2,-7.643626E2,-4.140825E2,-6.275269E2,-7.7867804E2,-7.15362E2,-6.57436E2,-5.751854E2,-7.9960297E2,-3.872106E2,-8.696047E2,-5.8276605E2,-4.4155566E2,-5.5045557E2,-8.4179694E2,-8.022188E2],"categories":[],"categories_nodes":[],"categories_segments":[],"categories_sizes":[],"default_left":[0,0,0,0,0,0,0,0,0,0,0,0,0,0,0,0,0,0,0,0,0,0,0,0,0,0,0,0,0,0,0,0,0,0,0,0,0,0,0,0,0,0,0,0,0,0,0,0,0,0,0,0,0,0,0,0,0,0,0,0,0,0,0,0,0,0,0,0,0,0,0,0,0,0,0,0,0,0,0,0,0,0,0,0,0,0,0,0,0,0,0,0,0,0,0,0,0,0,0,0,0,0,0,0,0,0,0,0,0,0,0,0,0,0,0,0,0,0,0,0,0,0,0,0,0],"id":8,"left_children":[1,3,5,7,9,11,13,15,17,19,21,23,25,27,29,31,33,35,37,39,41,43,45,47,49,51,53,55,57,59,61,63,65,67,69,71,73,75,77,79,81,83,85,87,89,-1,91,93,95,97,99,101,103,105,107,109,111,113,115,117,119,121,123,-1,-1,-1,-1,-1,-1,-1,-1,-1,-1,-1,-1,-1,-1,-1,-1,-1,-1,-1,-1,-1,-1,-1,-1,-1,-1,-1,-1,-1,-1,-1,-1,-1,-1,-1,-1,-1,-1,-1,-1,-1,-1,-1,-1,-1,-1,-1,-1,-1,-1,-1,-1,-1,-1,-1,-1,-1,-1,-1,-1,-1,-1],"loss_changes":[3.3364103E13,1.3070647E12,2.7003978E11,3.5637477E10,2.6171408E11,2.0654588E10,2.225288E10,2.8840136E9,2.5885688E10,2.4549261E10,1.1088062E11,5.0017157E9,1.1437736E10,2.1772632E10,1.5885402E10,3.47253E8,4.4184538E8,1.2404228E10,6.6655273E9,1.7748722E10,4.2851107E10,9.160465E10,6.7070853E9,3.0436147E8,2.0629053E9,1.0782638E9,1.3013615E10,2.741502E9,7.9744205E9,3.0862213E9,2.1660008E10,6.267008E6,9.272947E7,3.1121088E7,3.6454822E8,5.9561165E9,4.0337654E9,7.7058376E9,2.4106527E9,3.031826E9,1.308151E10,7.026901E9,2.9138616E10,1.823395E10,8.1298194E10,0E0,9.632023E9,1.1892531E8,9.340416E7,2.0755702E9,9.069374E8,4.6791066E8,1.4003405E8,4.0361656E9,2.9954048E9,1.8266194E9,3.0828134E8,1.1015291E9,3.0141317E9,2.836398E9,8.964014E8,1.0769449E9,3.5323904E7,0E0,0E0,0E0,0E0,0E0,0E0,0E0,0E0,0E0,0E0,0E0,0E0,0E0,0E0,0E0,0E0,0E0,0E0,0E0,0E0,0E0,0E0,0E0,0E0,0E0,0E0,0E0,0E0,0E0,0E0,0E0,0E0,0E0,0E0,0E0,0E0,0E0,0E0,0E0,0E0,0E0,0E0,0E0,0E0,0E0,0E0,0E0,0E0,0E0,0E0,0E0,0E0,0E0,0E0,0E0,0E0,0E0,0E0,0E0,0E0,0E0,0E0],"parents":[2147483647,0,0,1,1,2,2,3,3,4,4,5,5,6,6,7,7,8,8,9,9,10,10,11,11,12,12,13,13,14,14,15,15,16,16,17,17,18,18,19,19,20,20,21,21,22,22,23,23,24,24,25,25,26,26,27,27,28,28,29,29,30,30,31,31,32,32,33,33,34,34,35,35,36,36,37,37,38,38,39,39,40,40,41,41,42,42,43,43,44,44,46,46,47,47,48,48,49,49,50,50,51,51,52,52,53,53,54,54,55,55,56,56,57,57,58,58,59,59,60,60,61,61,62,62],"right_children":[2,4,6,8,10,12,14,16,18,20,22,24,26,28,30,32,34,36,38,40,42,44,46,48,50,52,54,56,58,60,62,64,66,68,70,72,74,76,78,80,82,84,86,88,90,-1,92,94,96,98,100,102,104,106,108,110,112,114,116,118,120,122,124,-1,-1,-1,-1,-1,-1,-1,-1,-1,-1,-1,-1,-1,-1,-1,-1,-1,-1,-1,-1,-1,-1,-1,-1,-1,-1,-1,-1,-1,-1,-1,-1,-1,-1,-1,-1,-1,-1,-1,-1,-1,-1,-1,-1,-1,-1,-1,-1,-1,-1,-1,-1,-1,-1,-1,-1,-1,-1,-1,-1,-1,-1],"split_conditions":[1E0,5.08E0,1.6E1,2.08E0,2E0,4E0,5E0,1.67E0,4.42E0,2E0,1E0,4.75E0,4.25E0,2E0,1E0,2E0,4E0,2E0,4E0,6.25E0,4E0,6E0,2E0,2.58E0,1E0,2.5E0,1E0,2.85E1,4.25E0,5E0,2E0,5E0,1.58E0,2E0,1.92E0,1E0,2.17E0,3E0,1E0,4E0,4E0,3E0,2E0,4E0,4E0,1.9039489E3,5E0,4E0,4E0,5E0,1E0,5E0,1E0,1.5E1,1E0,1.8E1,1.7E1,1.92E0,4E0,2.983E1,2.725E1,2.5E1,2.42E0,-4.2209155E2,-1.8437473E2,-1.740302E2,-8.132224E1,2.5381958E2,5.5169727E2,5.0132465E1,1.6299225E2,-1.516308E2,3.3415338E2,3.3100827E2,5.915431E2,1.2840074E3,5.877885E2,-3.1051605E2,6.303591E2,9.058683E2,7.3410125E0,1.4061028E3,1.6416346E3,1.0765829E3,1.2465731E3,1.630558E3,1.3169978E3,2.4535298E3,1.994435E3,1.5805504E3,1.8324258E3,3.0080938E3,2.08553E3,-5.308776E2,-6.3572076E2,-4.8627203E2,-3.8099237E2,-2.8852927E2,-4.2690402E2,-4.955776E2,-8.299721E1,-6.3348816E2,-7.122534E2,-6.230531E2,-5.59233E2,-4.9852124E2,-6.0766016E2,-5.354125E2,-2.7716364E2,-6.807188E2,-7.643626E2,-4.140825E2,-6.275269E2,-7.7867804E2,-7.15362E2,-6.57436E2,-5.751854E2,-7.9960297E2,-3.872106E2,-8.696047E2,-5.8276605E2,-4.4155566E2,-5.5045557E2,-8.4179694E2,-8.022188E2],"split_indices":[6,7,8,7,0,8,0,7,7,5,3,7,7,0,3,5,8,0,5,7,5,8,1,7,3,7,3,7,7,1,3,2,7,2,7,3,7,1,1,1,1,5,1,8,5,0,5,0,5,1,0,0,3,8,0,8,8,7,0,7,7,8,7,0,0,0,0,0,0,0,0,0,0,0,0,0,0,0,0,0,0,0,0,0,0,0,0,0,0,0,0,0,0,0,0,0,0,0,0,0,0,0,0,0,0,0,0,0,0,0,0,0,0,0,0,0,0,0,0,0,0,0,0,0,0],"split_type":[0,0,0,0,0,0,0,0,0,0,0,0,0,0,0,0,0,0,0,0,0,0,0,0,0,0,0,0,0,0,0,0,0,0,0,0,0,0,0,0,0,0,0,0,0,0,0,0,0,0,0,0,0,0,0,0,0,0,0,0,0,0,0,0,0,0,0,0,0,0,0,0,0,0,0,0,0,0,0,0,0,0,0,0,0,0,0,0,0,0,0,0,0,0,0,0,0,0,0,0,0,0,0,0,0,0,0,0,0,0,0,0,0,0,0,0,0,0,0,0,0,0,0,0,0],"sum_hessian":[2.16294E5,6.7374E4,1.4892E5,6.792E3,6.0582E4,3.9556E4,1.09364E5,1.15E3,5.642E3,2.1078E4,3.9504E4,5.099E3,3.4457E4,7.4398E4,3.4966E4,3.55E2,7.95E2,4.935E3,7.07E2,6.324E3,1.4754E4,3.8869E4,6.35E2,8.36E2,4.263E3,5.117E3,2.934E4,3.3937E4,4.0461E4,2.9062E4,5.904E3,3.5E1,3.2E2,1.9E1,7.76E2,2.072E3,2.863E3,5.32E2,1.75E2,9.6E1,6.228E3,6.45E3,8.304E3,2.398E3,3.6471E4,6.1E1,5.74E2,4.88E2,3.48E2,3.886E3,3.77E2,3.248E3,1.869E3,2.6944E4,2.396E3,3.3049E4,8.88E2,9.776E3,3.0685E4,2.3607E4,5.455E3,3.149E3,2.755E3,3.2E1,3E0,2.14E2,1.06E2,6E0,1.3E1,4.79E2,2.97E2,1.76E2,1.896E3,4.57E2,2.406E3,3.91E2,1.41E2,1.9E1,1.56E2,4.3E1,5.3E1,3.321E3,2.907E3,3.486E3,2.964E3,3.003E3,5.301E3,9.6E2,1.438E3,2.3878E4,1.2593E4,4.76E2,9.8E1,3.54E2,1.34E2,2.46E2,1.02E2,2.973E3,9.13E2,3.7E1,3.4E2,2.546E3,7.02E2,3.75E2,1.494E3,2.454E4,2.404E3,3.35E2,2.061E3,1.857E3,3.1192E4,5.4E1,8.34E2,2.564E3,7.212E3,2.7426E4,3.259E3,2.3497E4,1.1E2,5.376E3,7.9E1,8.14E2,2.335E3,1.916E3,8.39E2],"tree_param":{"num_deleted":"0","num_feature":"9","num_nodes":"125","size_leaf_vector":"1"}},{"base_weights":[7.644998E0,1.700626E4,-7.686102E3,4.8981567E3,1.835685E4,-5.6286187E3,-8.432778E3,1.7404639E2,5.8788716E3,1.5766997E4,1.9743963E4,-3.8753572E3,-5.88972E3,-8.146849E3,-9.039384E3,-2.0087705E3,1.1618126E3,5.129946E3,1.109911E4,1.7384248E4,1.5125226E4,1.9548773E4,3.1848145E4,-5.8678223E3,-3.4866992E3,-7.1695786E3,-5.6665874E3,-8.690188E3,-7.6906733E3,-9.318143E3,-7.65987E3,-4.1125225E3,-1.6034556E3,5.224317E3,1.0458882E3,3.379067E3,6.3877227E3,1.2782377E4,6.688319E3,2.0776846E4,1.6742303E4,1.3773491E4,1.6312594E4,1.8456355E4,2.159689E4,3.3187992E4,2.4482068E4,-6.397861E3,-5.2714355E3,-3.6924172E3,-1.3076603E3,-7.476688E3,-6.618526E3,-5.8432197E3,-3.645425E3,-8.733655E3,-7.0574736E3,-8.645733E3,-7.512444E3,-9.166303E3,-9.967586E3,-6.0298057E3,-9.544569E3,-3.8293088E2,-9.03627E1,-2.719219E1,-1.4982945E2,2.6421015E1,4.353312E2,4.5750435E1,1.466728E2,-1.3286946E2,3.0989575E2,8.35811E2,4.8633093E2,1.1773917E3,5.135431E2,9.8319617E2,5.1573926E2,1.745153E3,1.3733407E3,8.528225E2,1.4607234E3,1.4070267E3,1.0871105E3,1.491768E3,1.1756428E3,1.3504398E3,1.6559741E3,2.4833096E3,1.7088817E3,1.7456122E3,2.7683867E3,2.9126697E3,1.7825192E3,-5.846305E2,-4.8449338E2,-4.968043E2,-3.9603668E2,-2.5611194E2,-3.560323E2,-4.662772E2,-6.3398952E1,-5.8252374E2,-6.5536194E2,-5.829814E2,-5.1530707E2,-4.4121906E2,-4.9840228E2,-4.9404645E2,-2.5787125E2,-6.5675934E2,-7.068115E2,-3.7714722E2,-5.7609937E2,-7.1656226E2,-6.7440955E2,-5.651963E2,-6.200424E2,-7.351212E2,-3.622891E2,-8.1346875E2,-7.313916E2,-3.7785846E2,-5.042178E2,-7.7487427E2,-7.36941E2],"categories":[],"categories_nodes":[],"categories_segments":[],"categories_sizes":[],"default_left":[0,0,0,0,0,0,0,0,0,0,0,0,0,0,0,0,0,0,0,0,0,0,0,0,0,0,0,0,0,0,0,0,0,0,0,0,0,0,0,0,0,0,0,0,0,0,0,0,0,0,0,0,0,0,0,0,0,0,0,0,0,0,0,0,0,0,0,0,0,0,0,0,0,0,0,0,0,0,0,0,0,0,0,0,0,0,0,0,0,0,0,0,0,0,0,0,0,0,0,0,0,0,0,0,0,0,0,0,0,0,0,0,0,0,0,0,0,0,0,0,0,0,0,0,0,0,0],"id":9,"left_children":[1,3,5,7,9,11,13,15,17,19,21,23,25,27,29,31,33,35,37,39,41,43,45,47,49,51,53,55,57,59,61,63,65,67,69,71,73,75,77,79,81,83,85,87,89,91,93,95,97,99,101,103,105,107,109,111,113,115,117,119,121,123,125,-1,-1,-1,-1,-1,-1,-1,-1,-1,-1,-1,-1,-1,-1,-1,-1,-1,-1,-1,-1,-1,-1,-1,-1,-1,-1,-1,-1,-1,-1,-1,-1,-1,-1,-1,-1,-1,-1,-1,-1,-1,-1,-1,-1,-1,-1,-1,-1,-1,-1,-1,-1,-1,-1,-1,-1,-1,-1,-1,-1,-1,-1,-1,-1],"loss_changes":[2.8290203E13,1.1021058E12,2.2872588E11,3.1341265E10,2.175187E11,1.8130403E10,1.887699E10,2.512049E9,2.1844476E10,2.169294E10,9.266056E10,3.9622164E9,9.815589E9,1.8341167E10,1.3385073E10,3.029294E8,3.7223232E8,1.0771481E10,5.126537E9,1.272578E10,2.409418E10,8.654422E10,5.3559296E9,2.311721E8,1.9254108E9,8.1698816E8,1.0472456E10,2.3433052E9,6.808666E9,2.7787264E9,1.8031444E10,1.1122394E8,1.0353101E8,2.160192E7,2.9049222E8,5.1193795E9,3.508314E9,6.1480714E9,1.8600243E8,3.187671E9,4.6418625E10,4.75503E9,3.0156521E10,8.92637E10,2.9434577E10,7.7169295E9,1.813246E9,9.224806E7,8.976691E7,1.4499308E9,8.640974E8,3.9821312E8,1.7119642E8,3.3947648E9,2.50547E9,1.6832266E9,2.6383974E8,3.5028992E8,3.571712E9,2.444624E9,8.1893786E8,1.097048E9,3.915776E7,0E0,0E0,0E0,0E0,0E0,0E0,0E0,0E0,0E0,0E0,0E0,0E0,0E0,0E0,0E0,0E0,0E0,0E0,0E0,0E0,0E0,0E0,0E0,0E0,0E0,0E0,0E0,0E0,0E0,0E0,0E0,0E0,0E0,0E0,0E0,0E0,0E0,0E0,0E0,0E0,0E0,0E0,0E0,0E0,0E0,0E0,0E0,0E0,0E0,0E0,0E0,0E0,0E0,0E0,0E0,0E0,0E0,0E0,0E0,0E0,0E0,0E0,0E0,0E0],"parents":[2147483647,0,0,1,1,2,2,3,3,4,4,5,5,6,6,7,7,8,8,9,9,10,10,11,11,12,12,13,13,14,14,15,15,16,16,17,17,18,18,19,19,20,20,21,21,22,22,23,23,24,24,25,25,26,26,27,27,28,28,29,29,30,30,31,31,32,32,33,33,34,34,35,35,36,36,37,37,38,38,39,39,40,40,41,41,42,42,43,43,44,44,45,45,46,46,47,47,48,48,49,49,50,50,51,51,52,52,53,53,54,54,55,55,56,56,57,57,58,58,59,59,60,60,61,61,62,62],"right_children":[2,4,6,8,10,12,14,16,18,20,22,24,26,28,30,32,34,36,38,40,42,44,46,48,50,52,54,56,58,60,62,64,66,68,70,72,74,76,78,80,82,84,86,88,90,92,94,96,98,100,102,104,106,108,110,112,114,116,118,120,122,124,126,-1,-1,-1,-1,-1,-1,-1,-1,-1,-1,-1,-1,-1,-1,-1,-1,-1,-1,-1,-1,-1,-1,-1,-1,-1,-1,-1,-1,-1,-1,-1,-1,-1,-1,-1,-1,-1,-1,-1,-1,-1,-1,-1,-1,-1,-1,-1,-1,-1,-1,-1,-1,-1,-1,-1,-1,-1,-1,-1,-1,-1,-1,-1,-1],"split_conditions":[1E0,5.08E0,1.6E1,2.08E0,2E0,4E0,5E0,1.67E0,4.42E0,2E0,1E0,4.75E0,4.25E0,2E0,1E0,1.33E0,4E0,2E0,3E0,2E0,4E0,4E0,5E0,2.42E0,1E0,2.5E0,1E0,2.85E1,2.5E0,5E0,2E0,4E0,1E0,1.75E0,1.92E0,1E0,6E0,4E0,4E0,2.017E1,3E0,4E0,5E0,4E0,4E0,2E0,1.058E1,3E0,2E0,3E0,1E0,5E0,1E0,1.1E1,1E0,1E0,1.7E1,1.92E0,3E0,2.983E1,4E0,1E0,2.42E0,-3.8293088E2,-9.03627E1,-2.719219E1,-1.4982945E2,2.6421015E1,4.353312E2,4.5750435E1,1.466728E2,-1.3286946E2,3.0989575E2,8.35811E2,4.8633093E2,1.1773917E3,5.135431E2,9.8319617E2,5.1573926E2,1.745153E3,1.3733407E3,8.528225E2,1.4607234E3,1.4070267E3,1.0871105E3,1.491768E3,1.1756428E3,1.3504398E3,1.6559741E3,2.4833096E3,1.7088817E3,1.7456122E3,2.7683867E3,2.9126697E3,1.7825192E3,-5.846305E2,-4.8449338E2,-4.968043E2,-3.9603668E2,-2.5611194E2,-3.560323E2,-4.662772E2,-6.3398952E1,-5.8252374E2,-6.5536194E2,-5.829814E2,-5.1530707E2,-4.4121906E2,-4.9840228E2,-4.9404645E2,-2.5787125E2,-6.5675934E2,-7.068115E2,-3.7714722E2,-5.7609937E2,-7.1656226E2,-6.7440955E2,-5.651963E2,-6.200424E2,-7.351212E2,-3.622891E2,-8.1346875E2,-7.313916E2,-3.7785846E2,-5.042178E2,-7.7487427E2,-7.36941E2],"split_indices":[6,7,8,7,0,8,0,7,7,1,3,7,7,0,3,7,8,0,1,5,1,1,5,7,3,7,3,7,7,1,3,5,1,7,7,3,8,5,8,7,5,8,1,5,8,1,7,0,0,8,0,0,3,8,0,5,8,7,0,7,5,1,7,0,0,0,0,0,0,0,0,0,0,0,0,0,0,0,0,0,0,0,0,0,0,0,0,0,0,0,0,0,0,0,0,0,0,0,0,0,0,0,0,0,0,0,0,0,0,0,0,0,0,0,0,0,0,0,0,0,0,0,0,0,0,0,0],"split_type":[0,0,0,0,0,0,0,0,0,0,0,0,0,0,0,0,0,0,0,0,0,0,0,0,0,0,0,0,0,0,0,0,0,0,0,0,0,0,0,0,0,0,0,0,0,0,0,0,0,0,0,0,0,0,0,0,0,0,0,0,0,0,0,0,0,0,0,0,0,0,0,0,0,0,0,0,0,0,0,0,0,0,0,0,0,0,0,0,0,0,0,0,0,0,0,0,0,0,0,0,0,0,0,0,0,0,0,0,0,0,0,0,0,0,0,0,0,0,0,0,0,0,0,0,0,0,0],"sum_hessian":[2.16312E5,6.7399E4,1.48913E5,6.764E3,6.0635E4,3.9654E4,1.09259E5,1.163E3,5.601E3,2.1153E4,3.9482E4,5.142E3,3.4512E4,7.4267E4,3.4992E4,3.62E2,8.01E2,4.9E3,7.01E2,6.002E3,1.5151E4,3.8858E4,6.24E2,8.37E2,4.305E3,5.119E3,2.9393E4,3.3887E4,4.038E4,2.9105E4,5.887E3,5.7E1,3.05E2,2.1E1,7.8E2,2.05E3,2.85E3,5.06E2,1.95E2,9.5E2,5.052E3,7.091E3,8.06E3,2.5348E4,1.351E4,5.25E2,9.9E1,4.38E2,3.99E2,3.933E3,3.72E2,3.279E3,1.84E3,2.7029E4,2.364E3,3.3004E4,8.83E2,6.343E3,3.4037E4,2.3602E4,5.503E3,3.159E3,2.728E3,4.6E1,1.1E1,5.4E1,2.51E2,1E0,2E1,4.88E2,2.92E2,1.83E2,1.867E3,1.99E2,2.651E3,3.87E2,1.19E2,6E0,1.89E2,7.34E2,2.16E2,1.01E3,4.042E3,3.23E2,6.768E3,3.294E3,4.766E3,1.4894E4,1.0454E4,3.26E2,1.3184E4,6E1,4.65E2,1.3E1,8.6E1,1.14E2,3.24E2,9.7E1,3.02E2,2.39E3,1.543E3,3.7E1,3.35E2,2.585E3,6.94E2,3.77E2,1.463E3,1.4635E4,1.2394E4,3.36E2,2.028E3,5.367E3,2.7637E4,5.3E1,8.3E2,2.579E3,3.764E3,1.1831E4,2.2206E4,2.3486E4,1.16E2,4.417E3,1.086E3,5.49E2,2.61E3,1.895E3,8.33E2],"tree_param":{"num_deleted":"0","num_feature":"9","num_nodes":"127","size_leaf_vector":"1"}},{"base_weights":[-2.6545486E0,1.5644641E4,-7.076127E3,4.4883E3,1.6886557E4,-5.0711914E3,-7.725629E3,1.149163E3,5.6379805E3,1.4493592E4,1.816746E4,-3.556061E3,-5.3201104E3,-7.4667617E3,-8.275008E3,-1.437394E3,2.0645037E3,3.4125652E3,7.216854E3,1.8892166E4,1.4279139E4,1.4307704E4,1.8757715E4,-5.493992E3,-3.1756716E3,-6.4981646E3,-5.114468E3,-7.9538545E3,-7.057515E3,-8.524804E3,-7.035861E3,-3.6564788E3,-1.1522927E3,1.2697103E3,3.0529612E3,1.5133883E3,4.594115E3,6.2687515E3,1.1470663E4,2.114208E4,1.7826322E4,1.5700243E4,1.3668706E4,1.5509692E4,6.0721006E3,2.436325E4,1.8379775E4,-5.937928E3,-4.964257E3,-3.3592366E3,-1.2231056E3,-5.8844727E2,-6.2799746E3,-5.2782295E3,-3.2326516E3,-6.8500166E3,-8.0535845E3,-7.742356E3,-6.8377593E3,-7.4381226E3,-8.625576E3,-5.5341904E3,-8.773761E3,-3.415841E2,-8.304403E1,6.897575E1,-1.2065864E2,4.0678796E2,9.258291E1,5.5539097E1,3.029405E2,1.5335364E2,2.6003578E1,1.6099936E2,4.415256E2,5.3828235E2,3.1005914E2,9.755115E2,4.6238135E2,1.8194297E3,1.5339745E3,1.3246301E3,1.4960029E3,2.5180327E2,1.2716785E3,9.5524335E2,1.2007802E3,1.0874465E3,1.651497E3,4.1601105E2,1.7354872E3,2.1843938E3,1.7847356E3,1.4565829E3,2.3288257E3,-4.3046658E2,-5.1637384E2,-2.9851343E2,-4.2202817E2,-2.2908015E2,-3.28626E2,-4.220183E2,-5.849711E1,-4.866253E2,-5.638534E2,-4.250349E2,-2.7660583E2,-3.0780713E2,-1.3084926E2,-6.401442E2,-5.372254E2,-6.4723517E2,-5.284371E2,-6.396378E2,-5.925728E2,-5.308926E2,-5.8357263E2,-5.3135626E2,-6.286261E2,-6.927319E2,-5.184083E2,-3.6759006E2,-4.7125418E2,-7.133036E2,-6.745512E2],"categories":[],"categories_nodes":[],"categories_segments":[],"categories_sizes":[],"default_left":[0,0,0,0,0,0,0,0,0,0,0,0,0,0,0,0,0,0,0,0,0,0,0,0,0,0,0,0,0,0,0,0,0,0,0,0,0,0,0,0,0,0,0,0,0,0,0,0,0,0,0,0,0,0,0,0,0,0,0,0,0,0,0,0,0,0,0,0,0,0,0,0,0,0,0,0,0,0,0,0,0,0,0,0,0,0,0,0,0,0,0,0,0,0,0,0,0,0,0,0,0,0,0,0,0,0,0,0,0,0,0,0,0,0,0,0,0,0,0,0,0,0,0,0,0],"id":10,"left_children":[1,3,5,7,9,11,13,15,17,19,21,23,25,27,29,31,33,35,37,39,41,43,45,47,49,51,53,55,57,59,61,63,65,67,69,71,73,75,77,79,81,83,85,87,89,91,93,95,97,99,101,-1,103,105,107,109,111,113,115,117,119,121,123,-1,-1,-1,-1,-1,-1,-1,-1,-1,-1,-1,-1,-1,-1,-1,-1,-1,-1,-1,-1,-1,-1,-1,-1,-1,-1,-1,-1,-1,-1,-1,-1,-1,-1,-1,-1,-1,-1,-1,-1,-1,-1,-1,-1,-1,-1,-1,-1,-1,-1,-1,-1,-1,-1,-1,-1,-1,-1,-1,-1,-1,-1],"loss_changes":[2.390969E13,9.317311E11,1.9369191E11,2.5860317E10,1.8522885E11,1.3710983E10,1.5918432E10,4.0917793E9,1.7585766E10,1.9637207E10,8.9523225E10,3.771601E9,7.5412275E9,1.517106E10,1.1077157E10,2.8175085E8,9.985736E8,4.665E9,1.174895E10,1.9684065E9,1.7245143E10,5.169781E10,7.196901E10,1.6853606E8,1.5367496E9,8.2242765E8,8.1876746E9,3.7835244E9,6.1956424E9,3.2142787E9,1.5719563E10,7.747072E7,2.8954966E8,2.9821453E8,9.804769E8,3.8300467E8,3.0525501E9,2.6134282E9,2.1232599E9,5.370675E8,4.3291443E8,1.4793048E10,3.2468107E10,4.46386E10,8.986253E9,1.2418154E10,5.8748568E10,9.567539E7,1.2989133E8,1.4462976E9,7.356221E8,0E0,5.1873382E8,1.529217E9,2.0894597E9,3.955671E8,1.65308E9,7.959347E8,2.8479324E9,7.992443E8,1.9167969E9,1.059201E9,6.119424E7,0E0,0E0,0E0,0E0,0E0,0E0,0E0,0E0,0E0,0E0,0E0,0E0,0E0,0E0,0E0,0E0,0E0,0E0,0E0,0E0,0E0,0E0,0E0,0E0,0E0,0E0,0E0,0E0,0E0,0E0,0E0,0E0,0E0,0E0,0E0,0E0,0E0,0E0,0E0,0E0,0E0,0E0,0E0,0E0,0E0,0E0,0E0,0E0,0E0,0E0,0E0,0E0,0E0,0E0,0E0,0E0,0E0,0E0,0E0,0E0,0E0,0E0],"parents":[2147483647,0,0,1,1,2,2,3,3,4,4,5,5,6,6,7,7,8,8,9,9,10,10,11,11,12,12,13,13,14,14,15,15,16,16,17,17,18,18,19,19,20,20,21,21,22,22,23,23,24,24,25,25,26,26,27,27,28,28,29,29,30,30,31,31,32,32,33,33,34,34,35,35,36,36,37,37,38,38,39,39,40,40,41,41,42,42,43,43,44,44,45,45,46,46,47,47,48,48,49,49,50,50,52,52,53,53,54,54,55,55,56,56,57,57,58,58,59,59,60,60,61,61,62,62],"right_children":[2,4,6,8,10,12,14,16,18,20,22,24,26,28,30,32,34,36,38,40,42,44,46,48,50,52,54,56,58,60,62,64,66,68,70,72,74,76,78,80,82,84,86,88,90,92,94,96,98,100,102,-1,104,106,108,110,112,114,116,118,120,122,124,-1,-1,-1,-1,-1,-1,-1,-1,-1,-1,-1,-1,-1,-1,-1,-1,-1,-1,-1,-1,-1,-1,-1,-1,-1,-1,-1,-1,-1,-1,-1,-1,-1,-1,-1,-1,-1,-1,-1,-1,-1,-1,-1,-1,-1,-1,-1,-1,-1,-1,-1,-1,-1,-1,-1,-1,-1,-1,-1,-1,-1,-1],"split_conditions":[1E0,5.08E0,1.5E1,2.17E0,2E0,4E0,5E0,1.75E0,2E0,4E0,2E0,4.75E0,4.25E0,2E0,1E0,1.33E0,2.08E0,2.5E0,3.5E0,2E0,2E0,2.208E1,6E0,2.42E0,1E0,1.83E0,1E0,1.8E1,4.25E0,1.8E1,2E0,4E0,1E0,4E0,2E0,5E0,1E0,5E0,4E0,3E0,4E0,6.25E0,4E0,4E0,2.692E1,4E0,1E0,2.08E0,1E0,3E0,1E0,-5.8844727E2,5E0,2.8E1,4E0,4.92E0,2.85E1,2.33E0,3.9E1,1.6E1,2.725E1,2.5E1,2.42E0,-3.415841E2,-8.304403E1,6.897575E1,-1.2065864E2,4.0678796E2,9.258291E1,5.5539097E1,3.029405E2,1.5335364E2,2.6003578E1,1.6099936E2,4.415256E2,5.3828235E2,3.1005914E2,9.755115E2,4.6238135E2,1.8194297E3,1.5339745E3,1.3246301E3,1.4960029E3,2.5180327E2,1.2716785E3,9.5524335E2,1.2007802E3,1.0874465E3,1.651497E3,4.1601105E2,1.7354872E3,2.1843938E3,1.7847356E3,1.4565829E3,2.3288257E3,-4.3046658E2,-5.1637384E2,-2.9851343E2,-4.2202817E2,-2.2908015E2,-3.28626E2,-4.220183E2,-5.849711E1,-4.866253E2,-5.638534E2,-4.250349E2,-2.7660583E2,-3.0780713E2,-1.3084926E2,-6.401442E2,-5.372254E2,-6.4723517E2,-5.284371E2,-6.396378E2,-5.925728E2,-5.308926E2,-5.8357263E2,-5.3135626E2,-6.286261E2,-6.927319E2,-5.184083E2,-3.6759006E2,-4.7125418E2,-7.133036E2,-6.745512E2],"split_indices":[6,7,8,7,0,8,0,7,0,8,4,7,7,0,3,7,7,7,7,5,5,7,8,7,3,7,3,8,7,8,3,5,5,8,5,5,3,2,5,8,5,7,5,5,7,8,3,7,4,8,0,0,0,7,0,7,7,7,8,8,7,8,7,0,0,0,0,0,0,0,0,0,0,0,0,0,0,0,0,0,0,0,0,0,0,0,0,0,0,0,0,0,0,0,0,0,0,0,0,0,0,0,0,0,0,0,0,0,0,0,0,0,0,0,0,0,0,0,0,0,0,0,0,0,0],"split_type":[0,0,0,0,0,0,0,0,0,0,0,0,0,0,0,0,0,0,0,0,0,0,0,0,0,0,0,0,0,0,0,0,0,0,0,0,0,0,0,0,0,0,0,0,0,0,0,0,0,0,0,0,0,0,0,0,0,0,0,0,0,0,0,0,0,0,0,0,0,0,0,0,0,0,0,0,0,0,0,0,0,0,0,0,0,0,0,0,0,0,0,0,0,0,0,0,0,0,0,0,0,0,0,0,0,0,0,0,0,0,0,0,0,0,0,0,0,0,0,0,0,0,0,0,0],"sum_hessian":[2.16022E5,6.7252E4,1.4877E5,6.737E3,6.0515E4,3.6404E4,1.12366E5,1.726E3,5.011E3,2.1103E4,3.9412E4,5.139E3,3.1265E4,7.6387E4,3.5979E4,4.51E2,1.275E3,2.081E3,2.93E3,9.77E2,2.0126E4,5.231E3,3.4181E4,8.41E2,4.298E3,4.642E3,2.6623E4,3.4868E4,4.1519E4,2.9938E4,6.041E3,5E1,4.01E2,7.08E2,5.67E2,7.99E2,1.282E3,2.398E3,5.32E2,3.08E2,6.69E2,6.04E3,1.4086E4,4.564E3,6.67E2,2.155E3,3.2026E4,4.52E2,3.89E2,3.928E3,3.7E2,9.35E2,3.707E3,2.449E4,2.133E3,2.895E3,3.1973E4,1.0078E4,3.1441E4,2.547E3,2.7391E4,3.243E3,2.798E3,4E1,1E1,6E1,3.41E2,1.9E1,6.89E2,1.35E2,4.32E2,5.96E2,2.03E2,3.39E2,9.43E2,2.01E3,3.88E2,4.71E2,6.1E1,1.64E2,1.44E2,2.81E2,3.88E2,9.3E1,5.947E3,6.159E3,7.927E3,3.326E3,1.238E3,6.33E2,3.4E1,8.81E2,1.274E3,3.1522E4,5.04E2,2.23E2,2.29E2,8.1E1,3.08E2,2.366E3,1.562E3,3.9E1,3.31E2,2.957E3,7.5E2,2.403E4,4.6E2,1.539E3,5.94E2,2.97E2,2.598E3,3.1175E4,7.98E2,5.729E3,4.349E3,2.1826E4,9.615E3,8.85E2,1.662E3,2.6966E4,4.25E2,8.96E2,2.347E3,1.957E3,8.41E2],"tree_param":{"num_deleted":"0","num_feature":"9","num_nodes":"125","size_leaf_vector":"1"}},{"base_weights":[1.1242027E1,1.4391651E4,-6.5060703E3,4.1003154E3,1.5538748E4,-4.6582466E3,-7.1060674E3,3.4798298E3,9.441082E3,1.5399347E4,2.6063646E4,-3.2757573E3,-4.883205E3,-6.255927E3,-7.1841714E3,1.6962096E2,4.2677144E3,1.098268E4,5.3185127E3,1.2626712E4,1.5890215E4,1.4374892E4,2.7039371E4,-5.020568E3,-2.9288142E3,-6.1661187E3,-4.722781E3,-6.3018076E3,-3.9139211E3,-7.318088E3,-6.946382E3,-1.6131423E3,9.7955383E2,-1.716162E3,4.489045E3,1.2692377E4,5.5001978E3,4.2810186E3,6.1834976E3,1.3672234E4,7.62467E3,1.5133413E4,1.7192273E4,2.1743975E4,3.744116E3,2.8359486E4,1.9680508E4,-5.435876E3,-4.5208228E3,-2.6219E3,-3.940717E3,-5.4242285E2,-5.9361294E3,-4.8639E3,-3.540466E3,-7.281913E3,-6.20222E3,-2.7377458E3,-5.0603384E3,-7.2002446E3,-7.684888E3,-6.5339463E3,-7.298655E3,-2.7735672E2,-1.017564E2,4.1520836E1,1.3782835E2,-2.5519092E2,3.4159003E2,2.982987E2,4.8289487E2,8.335559E2,1.2485447E3,-2.5520735E2,5.9397736E2,5.3339453E2,2.0179303E2,9.495774E2,4.6670844E2,9.8001965E2,1.3195319E3,7.1055585E2,1.2789985E2,1.3151149E3,1.1045164E3,1.5972864E3,1.3060715E3,-9.4245917E2,1.8401967E3,1.3237814E3,-2.8614014E2,2.340247E3,1.7309639E3,2.1025312E3,1.4602131E3,-3.6607928E2,-4.5726315E2,-2.722516E2,-3.8577097E2,-2.208005E2,-1.0054776E2,-1.8090045E2,-3.9232584E2,-5.1400024E2,-4.7037125E2,-3.7807373E2,-4.3296362E2,-3.9867328E2,-2.3085362E2,-5.685292E2,-6.151287E2,-5.0821143E2,-4.070165E2,-2.663583E2,2.0052693E2,-4.7490305E2,-2.7713464E2,-5.977105E2,-5.1043143E2,-5.676926E2,-6.319307E2,-5.2437384E2,-3.1412323E2,-6.013461E2,-5.1556934E2],"categories":[],"categories_nodes":[],"categories_segments":[],"categories_sizes":[],"default_left":[0,0,0,0,0,0,0,0,0,0,0,0,0,0,0,0,0,0,0,0,0,0,0,0,0,0,0,0,0,0,0,0,0,0,0,0,0,0,0,0,0,0,0,0,0,0,0,0,0,0,0,0,0,0,0,0,0,0,0,0,0,0,0,0,0,0,0,0,0,0,0,0,0,0,0,0,0,0,0,0,0,0,0,0,0,0,0,0,0,0,0,0,0,0,0,0,0,0,0,0,0,0,0,0,0,0,0,0,0,0,0,0,0,0,0,0,0,0,0,0,0,0,0,0,0],"id":11,"left_children":[1,3,5,7,9,11,13,15,17,19,21,23,25,27,29,31,33,35,37,39,41,43,45,47,49,51,53,55,57,59,61,63,65,67,69,71,73,75,77,79,81,83,85,87,89,91,93,95,97,99,101,-1,103,105,107,109,111,113,115,117,119,121,123,-1,-1,-1,-1,-1,-1,-1,-1,-1,-1,-1,-1,-1,-1,-1,-1,-1,-1,-1,-1,-1,-1,-1,-1,-1,-1,-1,-1,-1,-1,-1,-1,-1,-1,-1,-1,-1,-1,-1,-1,-1,-1,-1,-1,-1,-1,-1,-1,-1,-1,-1,-1,-1,-1,-1,-1,-1,-1,-1,-1,-1,-1],"loss_changes":[2.0223346E13,7.943655E11,1.645913E11,2.2335767E10,8.843061E10,1.1304239E10,7.3977037E9,1.5775449E10,4.40304E9,8.112728E10,8.621261E9,3.070763E9,6.413353E9,9.895608E8,3.2180797E9,1.6823013E9,6.478799E9,4.710613E9,1.4672998E8,4.692692E10,4.9765417E10,4.8539494E9,6.514049E9,1.5059558E8,1.3108224E9,4.507566E8,4.625793E9,8.582922E8,2.3424947E8,2.7823964E9,5.328339E9,2.2581971E8,2.7330592E8,1.5574301E9,5.520253E9,2.4076083E9,2.0808151E9,3.6508723E8,1.3553254E8,2.9640622E10,1.1782038E10,5.5404134E10,4.4499993E10,1.8320282E9,2.5899E9,3.0614815E9,5.9478426E8,8.360141E7,1.1459328E8,6.12436E8,1.587414E9,0E0,3.227648E7,1.8544722E9,2.7927347E9,5.890048E6,1.3774356E9,2.969474E8,1.0806554E8,1.1000611E10,1.9555942E9,8.960082E8,3.6683776E9,0E0,0E0,0E0,0E0,0E0,0E0,0E0,0E0,0E0,0E0,0E0,0E0,0E0,0E0,0E0,0E0,0E0,0E0,0E0,0E0,0E0,0E0,0E0,0E0,0E0,0E0,0E0,0E0,0E0,0E0,0E0,0E0,0E0,0E0,0E0,0E0,0E0,0E0,0E0,0E0,0E0,0E0,0E0,0E0,0E0,0E0,0E0,0E0,0E0,0E0,0E0,0E0,0E0,0E0,0E0,0E0,0E0,0E0,0E0,0E0,0E0,0E0],"parents":[2147483647,0,0,1,1,2,2,3,3,4,4,5,5,6,6,7,7,8,8,9,9,10,10,11,11,12,12,13,13,14,14,15,15,16,16,17,17,18,18,19,19,20,20,21,21,22,22,23,23,24,24,25,25,26,26,27,27,28,28,29,29,30,30,31,31,32,32,33,33,34,34,35,35,36,36,37,37,38,38,39,39,40,40,41,41,42,42,43,43,44,44,45,45,46,46,47,47,48,48,49,49,50,50,52,52,53,53,54,54,55,55,56,56,57,57,58,58,59,59,60,60,61,61,62,62],"right_children":[2,4,6,8,10,12,14,16,18,20,22,24,26,28,30,32,34,36,38,40,42,44,46,48,50,52,54,56,58,60,62,64,66,68,70,72,74,76,78,80,82,84,86,88,90,92,94,96,98,100,102,-1,104,106,108,110,112,114,116,118,120,122,124,-1,-1,-1,-1,-1,-1,-1,-1,-1,-1,-1,-1,-1,-1,-1,-1,-1,-1,-1,-1,-1,-1,-1,-1,-1,-1,-1,-1,-1,-1,-1,-1,-1,-1,-1,-1,-1,-1,-1,-1,-1,-1,-1,-1,-1,-1,-1,-1,-1,-1,-1,-1,-1,-1,-1,-1,-1,-1,-1,-1,-1,-1],"split_conditions":[1E0,5.08E0,1.5E1,4.42E0,1E0,4E0,1.8E1,2.08E0,3E0,2E0,7.75E0,4.75E0,2.75E0,2.85E1,4E0,1.67E0,1E0,4E0,1E0,2.183E1,4E0,7.42E0,2.117E1,2.42E0,5E0,1.83E0,1E0,2.42E0,3E0,5E0,5E0,1.33E0,1.92E0,3.92E0,2.67E0,2E0,5E0,4.67E0,4E0,4E0,5E0,2E0,1E0,1E0,5E0,5E0,4E0,2E0,1E0,1E0,1.133E1,-5.4242285E2,1E0,5E0,7.58E0,5E0,1E0,2E0,1E0,4E0,1E0,2.983E1,4E0,-2.7735672E2,-1.017564E2,4.1520836E1,1.3782835E2,-2.5519092E2,3.4159003E2,2.982987E2,4.8289487E2,8.335559E2,1.2485447E3,-2.5520735E2,5.9397736E2,5.3339453E2,2.0179303E2,9.495774E2,4.6670844E2,9.8001965E2,1.3195319E3,7.1055585E2,1.2789985E2,1.3151149E3,1.1045164E3,1.5972864E3,1.3060715E3,-9.4245917E2,1.8401967E3,1.3237814E3,-2.8614014E2,2.340247E3,1.7309639E3,2.1025312E3,1.4602131E3,-3.6607928E2,-4.5726315E2,-2.722516E2,-3.8577097E2,-2.208005E2,-1.0054776E2,-1.8090045E2,-3.9232584E2,-5.1400024E2,-4.7037125E2,-3.7807373E2,-4.3296362E2,-3.9867328E2,-2.3085362E2,-5.685292E2,-6.151287E2,-5.0821143E2,-4.070165E2,-2.663583E2,2.0052693E2,-4.7490305E2,-2.7713464E2,-5.977105E2,-5.1043143E2,-5.676926E2,-6.319307E2,-5.2437384E2,-3.1412323E2,-6.013461E2,-5.1556934E2],"split_indices":[6,7,8,7,3,8,8,7,1,4,7,7,7,7,5,7,3,5,2,7,1,7,7,7,1,7,3,7,1,1,5,7,7,7,7,1,5,7,8,5,5,1,5,1,8,5,8,8,4,3,7,0,1,1,7,1,3,1,3,1,5,7,1,0,0,0,0,0,0,0,0,0,0,0,0,0,0,0,0,0,0,0,0,0,0,0,0,0,0,0,0,0,0,0,0,0,0,0,0,0,0,0,0,0,0,0,0,0,0,0,0,0,0,0,0,0,0,0,0,0,0,0,0,0,0],"split_type":[0,0,0,0,0,0,0,0,0,0,0,0,0,0,0,0,0,0,0,0,0,0,0,0,0,0,0,0,0,0,0,0,0,0,0,0,0,0,0,0,0,0,0,0,0,0,0,0,0,0,0,0,0,0,0,0,0,0,0,0,0,0,0,0,0,0,0,0,0,0,0,0,0,0,0,0,0,0,0,0,0,0,0,0,0,0,0,0,0,0,0,0,0,0,0,0,0,0,0,0,0,0,0,0,0,0,0,0,0,0,0,0,0,0,0,0,0,0,0,0,0,0,0,0,0],"sum_hessian":[2.15779E5,6.7294E4,1.48485E5,6.749E3,6.0545E4,3.6398E4,1.12087E5,6.048E3,7.01E2,5.9756E4,7.89E2,5.096E3,3.1302E4,9.438E3,1.02649E5,1.163E3,4.885E3,5.09E2,1.92E2,8.992E3,5.0764E4,6.2E1,7.27E2,8.43E2,4.253E3,3.475E3,2.7827E4,9.255E3,1.83E2,6.5648E4,3.7001E4,3.63E2,8E2,1.74E2,4.711E3,3.87E2,1.22E2,9E1,1.02E2,7.436E3,1.556E3,3.2112E4,1.8652E4,3.6E1,2.6E1,6.14E2,1.13E2,4.55E2,3.88E2,3.266E3,9.87E2,9.39E2,2.536E3,2.4857E4,2.97E3,8.47E2,8.408E3,9.2E1,9.1E1,4.9701E4,1.5947E4,1.7054E4,1.9947E4,5.5E1,3.08E2,4.95E2,3.05E2,1.4E2,3.4E1,3.161E3,1.55E3,2.2E2,1.67E2,2.2E1,1E2,3.7E1,5.3E1,4E0,9.8E1,4.948E3,2.488E3,1.287E3,2.69E2,1.6181E4,1.5931E4,4.434E3,1.4218E4,1E0,3.5E1,9E0,1.7E1,5.39E2,7.5E1,1.7E1,9.6E1,1.16E2,3.39E2,8.5E1,3.03E2,2.965E3,3.01E2,3.61E2,6.26E2,2.51E2,2.285E3,1.9866E4,4.991E3,9.25E2,2.045E3,6.05E2,2.42E2,7.404E3,1.004E3,8.3E1,9E0,5.7E1,3.4E1,3.7343E4,1.2358E4,4.264E3,1.1683E4,1.6918E4,1.36E2,1.5882E4,4.065E3],"tree_param":{"num_deleted":"0","num_feature":"9","num_nodes":"125","size_leaf_vector":"1"}},{"base_weights":[8.936627E0,-2.6028022E3,3.51976E3,-2.5671408E2,-5.6091226E3,4.1963755E3,-9.976688E2,-6.282496E3,9.413287E2,-4.2171494E3,-5.847113E3,5.781768E3,3.6446208E3,1.7362751E3,-1.534176E3,-4.777157E3,-6.490078E3,-2.8994258E3,1.357522E3,-2.7726804E3,-4.441609E3,-6.6081885E3,-5.7063477E3,6.123424E3,3.0199268E3,4.0619966E3,2.2980522E3,5.429536E3,-1.4844785E2,-3.3960203E3,-1.0310227E3,-4.3276675E3,-5.42645E3,-5.8972188E3,-6.577634E3,-5.522354E3,-2.6616572E3,3.1106357E3,5.809138E2,-2.3354456E3,-4.0220608E3,-5.25014E3,-4.259157E3,-5.6475933E3,-6.718742E3,-5.529761E3,-6.172856E3,5.4711294E3,7.354042E3,6.0775366E3,1.6028665E3,1.7198492E2,4.2230024E3,3.425274E3,5.0518964E2,7.519642E3,9.490778E2,-3.0293455E3,4.3794885E2,-6.207298E2,-3.1734067E3,-1.918199E2,-2.3788289E3,-3.8529605E2,-2.9419043E2,-3.243224E2,-4.605544E2,-4.309532E2,-4.9922632E2,-5.8213525E2,-5.2287646E2,-4.8845166E2,-3.3664838E2,-3.4278635E2,-1.8048811E2,2.7811426E2,-7.600596E1,8.174952E1,-9.289792E1,-1.4225316E2,-2.9120178E2,-4.3678616E2,-3.0379993E2,-4.8983078E2,-3.9562152E2,-3.205046E2,-4.143005E2,-5.065077E2,-4.3297015E2,-5.774461E2,-5.2920215E2,-4.5879547E2,-4.1503363E2,-5.152115E2,-3.9682886E2,3.515875E2,5.6131256E2,3.7867303E2,6.1909393E2,3.4049582E2,6.4095435E2,2.8600365E1,3.3630838E2,5.5865364E1,-2.5474823E2,2.9513266E2,4.2339664E2,-3.796477E1,3.6515195E2,-7.948729E1,2.4907585E2,5.0736523E2,1.7503717E3,-1.5883502E2,1.3451573E2,-4.9501678E2,-2.2154639E2,-6.2305935E1,5.830472E1,-3.0553458E2,-2.033172E2,-2.0540201E2,4.664924E1,-2.2936406E2,1.2943305E1],"categories":[],"categories_nodes":[],"categories_segments":[],"categories_sizes":[],"default_left":[0,0,0,0,0,0,0,0,0,0,0,0,0,0,0,0,0,0,0,0,0,0,0,0,0,0,0,0,0,0,0,0,0,0,0,0,0,0,0,0,0,0,0,0,0,0,0,0,0,0,0,0,0,0,0,0,0,0,0,0,0,0,0,0,0,0,0,0,0,0,0,0,0,0,0,0,0,0,0,0,0,0,0,0,0,0,0,0,0,0,0,0,0,0,0,0,0,0,0,0,0,0,0,0,0,0,0,0,0,0,0,0,0,0,0,0,0,0,0,0,0,0,0,0,0],"id":12,"left_children":[1,3,5,7,9,11,13,15,17,19,21,23,25,27,29,31,33,35,37,39,41,43,45,47,49,51,53,55,57,59,61,63,65,67,69,71,73,75,77,79,81,83,85,87,89,91,93,95,97,99,101,103,105,107,109,111,113,115,117,-1,119,121,123,-1,-1,-1,-1,-1,-1,-1,-1,-1,-1,-1,-1,-1,-1,-1,-1,-1,-1,-1,-1,-1,-1,-1,-1,-1,-1,-1,-1,-1,-1,-1,-1,-1,-1,-1,-1,-1,-1,-1,-1,-1,-1,-1,-1,-1,-1,-1,-1,-1,-1,-1,-1,-1,-1,-1,-1,-1,-1,-1,-1,-1,-1],"loss_changes":[1.9819467E12,8.74194E11,2.8183154E11,5.0258834E11,1.7972855E10,7.012758E10,1.7621635E10,3.5768893E9,9.283341E10,2.5607373E9,4.9325015E9,1.95159E10,3.3426702E10,1.3720491E10,9.403775E9,3.859804E8,4.8775168E8,3.5263898E9,7.133442E10,5.7511834E8,9.906504E8,7.304315E8,3.1917343E9,1.4747566E10,9.873414E9,2.844269E10,2.8451267E10,6.229709E9,2.2076163E9,2.0500419E9,8.943015E9,2.4723968E8,2.3519027E8,1.9662848E8,2.0968243E8,3.3537126E8,3.4186854E9,2.3895605E10,2.7896236E10,5.7150515E8,6.83776E7,3.0497178E8,1.2832195E9,8.696627E7,2.8799795E8,1.9633275E9,3.4500444E9,2.000031E10,6.393266E9,2.5096417E9,5.051606E9,3.1926106E9,2.4877859E10,3.8402277E10,2.1253548E10,7.538381E9,4.6110694E8,1.6435469E8,3.8491478E8,0E0,8.20353E8,8.974619E9,3.763797E9,0E0,0E0,0E0,0E0,0E0,0E0,0E0,0E0,0E0,0E0,0E0,0E0,0E0,0E0,0E0,0E0,0E0,0E0,0E0,0E0,0E0,0E0,0E0,0E0,0E0,0E0,0E0,0E0,0E0,0E0,0E0,0E0,0E0,0E0,0E0,0E0,0E0,0E0,0E0,0E0,0E0,0E0,0E0,0E0,0E0,0E0,0E0,0E0,0E0,0E0,0E0,0E0,0E0,0E0,0E0,0E0,0E0,0E0,0E0,0E0,0E0,0E0],"parents":[2147483647,0,0,1,1,2,2,3,3,4,4,5,5,6,6,7,7,8,8,9,9,10,10,11,11,12,12,13,13,14,14,15,15,16,16,17,17,18,18,19,19,20,20,21,21,22,22,23,23,24,24,25,25,26,26,27,27,28,28,29,29,30,30,31,31,32,32,33,33,34,34,35,35,36,36,37,37,38,38,39,39,40,40,41,41,42,42,43,43,44,44,45,45,46,46,47,47,48,48,49,49,50,50,51,51,52,52,53,53,54,54,55,55,56,56,57,57,58,58,60,60,61,61,62,62],"right_children":[2,4,6,8,10,12,14,16,18,20,22,24,26,28,30,32,34,36,38,40,42,44,46,48,50,52,54,56,58,60,62,64,66,68,70,72,74,76,78,80,82,84,86,88,90,92,94,96,98,100,102,104,106,108,110,112,114,116,118,-1,120,122,124,-1,-1,-1,-1,-1,-1,-1,-1,-1,-1,-1,-1,-1,-1,-1,-1,-1,-1,-1,-1,-1,-1,-1,-1,-1,-1,-1,-1,-1,-1,-1,-1,-1,-1,-1,-1,-1,-1,-1,-1,-1,-1,-1,-1,-1,-1,-1,-1,-1,-1,-1,-1,-1,-1,-1,-1,-1,-1,-1,-1,-1,-1],"split_conditions":[5E0,2E0,1E0,1E0,1.1E1,1.5E1,1.1E1,1.2E1,5.42E0,3E0,2.5E0,2.433E1,1.817E1,2E0,2.17E0,3E0,1.7E1,1.75E0,1.7E1,2E0,2.58E0,1.5E1,3.9E1,4E0,5E0,5.42E0,4E0,2.117E1,1.92E0,1.25E0,3E0,1.058E1,1E0,2E0,2.08E0,4E0,2E0,1E0,2.358E1,1.042E1,3E0,1.58E0,1.142E1,1.58E0,1.33E0,4E0,1.125E1,4E0,2E0,5E0,4E0,5E0,4E0,2E0,4E0,5E0,1E0,1.25E0,2.17E0,-6.207298E2,1.92E0,2E0,5E0,-3.8529605E2,-2.9419043E2,-3.243224E2,-4.605544E2,-4.309532E2,-4.9922632E2,-5.8213525E2,-5.2287646E2,-4.8845166E2,-3.3664838E2,-3.4278635E2,-1.8048811E2,2.7811426E2,-7.600596E1,8.174952E1,-9.289792E1,-1.4225316E2,-2.9120178E2,-4.3678616E2,-3.0379993E2,-4.8983078E2,-3.9562152E2,-3.205046E2,-4.143005E2,-5.065077E2,-4.3297015E2,-5.774461E2,-5.2920215E2,-4.5879547E2,-4.1503363E2,-5.152115E2,-3.9682886E2,3.515875E2,5.6131256E2,3.7867303E2,6.1909393E2,3.4049582E2,6.4095435E2,2.8600365E1,3.3630838E2,5.5865364E1,-2.5474823E2,2.9513266E2,4.2339664E2,-3.796477E1,3.6515195E2,-7.948729E1,2.4907585E2,5.0736523E2,1.7503717E3,-1.5883502E2,1.3451573E2,-4.9501678E2,-2.2154639E2,-6.2305935E1,5.830472E1,-3.0553458E2,-2.033172E2,-2.0540201E2,4.664924E1,-2.2936406E2,1.2943305E1],"split_indices":[0,0,3,0,8,8,8,8,7,8,7,7,7,3,7,5,8,7,8,3,7,8,8,1,8,7,4,7,7,7,2,7,2,2,7,1,3,3,7,7,0,7,7,7,7,1,7,5,4,4,5,5,1,4,1,5,5,7,7,0,7,1,1,0,0,0,0,0,0,0,0,0,0,0,0,0,0,0,0,0,0,0,0,0,0,0,0,0,0,0,0,0,0,0,0,0,0,0,0,0,0,0,0,0,0,0,0,0,0,0,0,0,0,0,0,0,0,0,0,0,0,0,0,0,0],"split_type":[0,0,0,0,0,0,0,0,0,0,0,0,0,0,0,0,0,0,0,0,0,0,0,0,0,0,0,0,0,0,0,0,0,0,0,0,0,0,0,0,0,0,0,0,0,0,0,0,0,0,0,0,0,0,0,0,0,0,0,0,0,0,0,0,0,0,0,0,0,0,0,0,0,0,0,0,0,0,0,0,0,0,0,0,0,0,0,0,0,0,0,0,0,0,0,0,0,0,0,0,0,0,0,0,0,0,0,0,0,0,0,0,0,0,0,0,0,0,0,0,0,0,0,0,0],"sum_hessian":[2.16147E5,1.23944E5,9.2203E4,6.9617E4,5.4327E4,8.0192E4,1.2011E4,1.1545E4,5.8072E4,7.935E3,4.6392E4,2.0701E4,5.9491E4,1.97E3,1.0041E4,1.402E3,1.0143E4,5.677E3,5.2395E4,1.069E3,6.866E3,7.234E3,3.9158E4,1.8421E4,2.28E3,4.5413E4,1.4078E4,6.65E2,1.305E3,2.135E3,7.906E3,8.33E2,5.69E2,1.314E3,8.829E3,4.7E2,5.207E3,1.6084E4,3.6311E4,7.94E2,2.75E2,1.259E3,5.607E3,7.52E2,6.482E3,2.8415E4,1.0743E4,1.2043E4,6.378E3,7.21E2,1.559E3,1.805E3,4.3608E4,8.643E3,5.435E3,4.53E2,2.12E2,2.2E2,1.085E3,1.02E2,2.033E3,4.873E3,3.033E3,4.72E2,3.61E2,1.13E2,4.56E2,5.35E2,7.79E2,4.87E2,8.342E3,3.23E2,1.47E2,1.039E3,4.168E3,1.4755E4,1.329E3,2.8977E4,7.334E3,5.58E2,2.36E2,3.4E1,2.41E2,3.21E2,9.38E2,4.402E3,1.205E3,1.86E2,5.66E2,1.103E3,5.379E3,1.7747E4,1.0668E4,8.799E3,1.944E3,7.101E3,4.942E3,8.18E2,5.56E3,3.73E2,3.48E2,1.055E3,5.04E2,1.561E3,2.44E2,2.9091E4,1.4517E4,1.954E3,6.689E3,3.452E3,1.983E3,4.2E2,3.3E1,4.2E1,1.7E2,1.5E1,2.05E2,2.09E2,8.76E2,1.003E3,1.03E3,1.198E3,3.675E3,2.544E3,4.89E2],"tree_param":{"num_deleted":"0","num_feature":"9","num_nodes":"125","size_leaf_vector":"1"}},{"base_weights":[-1.034496E0,1.3016032E4,-5.884344E3,3.9200034E3,1.402774E4,-4.4022695E3,-6.4213574E3,1.1314825E3,4.8867095E3,1.1990269E4,1.5112201E4,-3.102827E3,-4.596578E3,-6.0116396E3,-7.2941704E3,-9.252299E2,1.8672084E3,3.0125393E3,6.2024595E3,1.3412813E4,1.142871E4,2.12292E4,1.4836746E4,-4.463062E3,-2.8366943E3,-5.4346616E3,-4.4990117E3,-6.6618135E3,-5.464283E3,-7.603736E3,-5.7702954E3,-1.5482378E3,-1.3109494E2,5.8404673E3,1.6902474E3,1.49201E3,4.3266875E3,5.4457017E3,9.606167E3,1.6348772E4,1.2850249E4,9.661839E3,1.2120358E4,2.288619E4,1.8747799E4,1.5547838E4,1.2266382E4,-5.51704E3,-4.179414E3,-2.5054573E3,-3.9476763E3,-5.220056E3,-6.3039604E3,-4.6513423E3,-3.3171746E3,-6.040504E3,-6.8898965E3,-5.8834194E3,-5.2060435E3,-7.449001E3,-8.270056E3,-4.422132E3,-7.3400376E3,-2.9203717E2,-9.678652E1,1.6138564E2,-5.1295937E1,2.3743849E2,6.1780414E2,1.0847295E2,2.6829114E2,1.5444603E2,5.193733E0,1.6524074E2,4.2495847E2,3.7771878E2,6.6317114E2,8.714142E2,4.1170078E2,1.381974E3,1.0540074E3,5.846294E2,1.1372804E3,6.7551587E2,8.638444E2,1.2200044E3,9.1145636E2,1.6084656E3,1.9153417E3,1.4045593E3,1.6774297E3,1.230236E3,2.0264523E3,6.5230817E2,1.0477208E3,-5.840953E2,-4.1592285E2,-3.04773E2,-4.423303E2,-2.118419E2,-8.983515E1,-1.6826524E2,-3.9697977E2,-4.6620438E2,-4.0329492E2,-5.1139175E2,-4.1331757E2,-3.5059402E2,-4.074066E2,-3.6485825E2,-2.1663434E2,-4.5644202E2,-4.9032135E2,-5.6737787E2,-4.973897E2,-4.986789E2,-4.54847E2,-4.2519986E2,-3.535516E2,-5.974422E2,-2.8113358E2,-6.649987E2,-4.2853314E2,-2.5181146E2,-3.748044E2,-5.4387354E2,-5.9166223E2],"categories":[],"categories_nodes":[],"categories_segments":[],"categories_sizes":[],"default_left":[0,0,0,0,0,0,0,0,0,0,0,0,0,0,0,0,0,0,0,0,0,0,0,0,0,0,0,0,0,0,0,0,0,0,0,0,0,0,0,0,0,0,0,0,0,0,0,0,0,0,0,0,0,0,0,0,0,0,0,0,0,0,0,0,0,0,0,0,0,0,0,0,0,0,0,0,0,0,0,0,0,0,0,0,0,0,0,0,0,0,0,0,0,0,0,0,0,0,0,0,0,0,0,0,0,0,0,0,0,0,0,0,0,0,0,0,0,0,0,0,0,0,0,0,0,0,0],"id":13,"left_children":[1,3,5,7,9,11,13,15,17,19,21,23,25,27,29,31,33,35,37,39,41,43,45,47,49,51,53,55,57,59,61,63,65,67,69,71,73,75,77,79,81,83,85,87,89,91,93,95,97,99,101,103,105,107,109,111,113,115,117,119,121,123,125,-1,-1,-1,-1,-1,-1,-1,-1,-1,-1,-1,-1,-1,-1,-1,-1,-1,-1,-1,-1,-1,-1,-1,-1,-1,-1,-1,-1,-1,-1,-1,-1,-1,-1,-1,-1,-1,-1,-1,-1,-1,-1,-1,-1,-1,-1,-1,-1,-1,-1,-1,-1,-1,-1,-1,-1,-1,-1,-1,-1,-1,-1,-1,-1],"loss_changes":[1.6521728E13,6.179321E11,1.1822642E11,1.8117526E10,1.3334741E11,9.964552E9,3.895722E10,2.6225495E9,1.2291277E10,1.6620192E10,6.613264E10,1.8494792E9,2.7865907E9,2.6379026E10,1.6389767E10,2.2589891E8,8.8729856E8,4.1118372E9,7.4998825E9,9.595847E9,1.8288214E10,6.5484227E9,6.878816E10,2.2806733E8,1.5743468E9,6.349537E8,5.5292723E9,4.765516E9,4.3317985E9,2.9231677E9,1.2423873E10,1.7770368E8,2.2266851E8,2.690176E8,6.756009E8,5.988338E8,2.4508846E9,4.906033E9,2.9964124E9,2.5669468E9,3.7645386E10,5.7788334E9,2.445004E10,2.4916787E9,1.4428078E9,4.873624E10,2.7829338E10,6.132992E7,3.113083E8,6.5120256E8,1.8364713E9,2.832466E8,3.779379E7,3.214672E9,2.654507E9,2.3537254E8,3.331195E9,1.0281288E9,2.1147812E9,1.7335583E9,6.2878515E8,1.047167E9,3.178496E7,0E0,0E0,0E0,0E0,0E0,0E0,0E0,0E0,0E0,0E0,0E0,0E0,0E0,0E0,0E0,0E0,0E0,0E0,0E0,0E0,0E0,0E0,0E0,0E0,0E0,0E0,0E0,0E0,0E0,0E0,0E0,0E0,0E0,0E0,0E0,0E0,0E0,0E0,0E0,0E0,0E0,0E0,0E0,0E0,0E0,0E0,0E0,0E0,0E0,0E0,0E0,0E0,0E0,0E0,0E0,0E0,0E0,0E0,0E0,0E0,0E0,0E0,0E0,0E0],"parents":[2147483647,0,0,1,1,2,2,3,3,4,4,5,5,6,6,7,7,8,8,9,9,10,10,11,11,12,12,13,13,14,14,15,15,16,16,17,17,18,18,19,19,20,20,21,21,22,22,23,23,24,24,25,25,26,26,27,27,28,28,29,29,30,30,31,31,32,32,33,33,34,34,35,35,36,36,37,37,38,38,39,39,40,40,41,41,42,42,43,43,44,44,45,45,46,46,47,47,48,48,49,49,50,50,51,51,52,52,53,53,54,54,55,55,56,56,57,57,58,58,59,59,60,60,61,61,62,62],"right_children":[2,4,6,8,10,12,14,16,18,20,22,24,26,28,30,32,34,36,38,40,42,44,46,48,50,52,54,56,58,60,62,64,66,68,70,72,74,76,78,80,82,84,86,88,90,92,94,96,98,100,102,104,106,108,110,112,114,116,118,120,122,124,126,-1,-1,-1,-1,-1,-1,-1,-1,-1,-1,-1,-1,-1,-1,-1,-1,-1,-1,-1,-1,-1,-1,-1,-1,-1,-1,-1,-1,-1,-1,-1,-1,-1,-1,-1,-1,-1,-1,-1,-1,-1,-1,-1,-1,-1,-1,-1,-1,-1,-1,-1,-1,-1,-1,-1,-1,-1,-1,-1,-1,-1,-1,-1,-1],"split_conditions":[1E0,5.08E0,1.6E1,2.17E0,2E0,4E0,5E0,1.75E0,2E0,2E0,5E0,4.75E0,2.67E0,2E0,1E0,1.58E0,5E0,2.58E0,3.5E0,2E0,3E0,4E0,1.908E1,2E0,5E0,5E0,1E0,1E0,5.83E0,5E0,2E0,2E0,1E0,2E0,5E0,5E0,1E0,5E0,3E0,2.017E1,3E0,4E0,1E0,2E0,4E0,1E0,2E0,1E0,5E0,1E0,1.083E1,2E0,2.42E0,5E0,4.25E0,1E0,2.308E1,2.33E0,4E0,2.983E1,2.725E1,1E0,1.67E0,-2.9203717E2,-9.678652E1,1.6138564E2,-5.1295937E1,2.3743849E2,6.1780414E2,1.0847295E2,2.6829114E2,1.5444603E2,5.193733E0,1.6524074E2,4.2495847E2,3.7771878E2,6.6317114E2,8.714142E2,4.1170078E2,1.381974E3,1.0540074E3,5.846294E2,1.1372804E3,6.7551587E2,8.638444E2,1.2200044E3,9.1145636E2,1.6084656E3,1.9153417E3,1.4045593E3,1.6774297E3,1.230236E3,2.0264523E3,6.5230817E2,1.0477208E3,-5.840953E2,-4.1592285E2,-3.04773E2,-4.423303E2,-2.118419E2,-8.983515E1,-1.6826524E2,-3.9697977E2,-4.6620438E2,-4.0329492E2,-5.1139175E2,-4.1331757E2,-3.5059402E2,-4.074066E2,-3.6485825E2,-2.1663434E2,-4.5644202E2,-4.9032135E2,-5.6737787E2,-4.973897E2,-4.986789E2,-4.54847E2,-4.2519986E2,-3.535516E2,-5.974422E2,-2.8113358E2,-6.649987E2,-4.2853314E2,-2.5181146E2,-3.748044E2,-5.4387354E2,-5.9166223E2],"split_indices":[6,7,8,7,0,8,0,7,0,1,8,7,7,0,3,7,8,7,7,5,1,8,7,0,1,0,3,0,7,1,3,1,1,0,2,1,3,1,1,7,5,5,5,2,5,3,2,3,0,3,7,0,7,0,7,5,7,7,0,7,7,1,7,0,0,0,0,0,0,0,0,0,0,0,0,0,0,0,0,0,0,0,0,0,0,0,0,0,0,0,0,0,0,0,0,0,0,0,0,0,0,0,0,0,0,0,0,0,0,0,0,0,0,0,0,0,0,0,0,0,0,0,0,0,0,0,0],"split_type":[0,0,0,0,0,0,0,0,0,0,0,0,0,0,0,0,0,0,0,0,0,0,0,0,0,0,0,0,0,0,0,0,0,0,0,0,0,0,0,0,0,0,0,0,0,0,0,0,0,0,0,0,0,0,0,0,0,0,0,0,0,0,0,0,0,0,0,0,0,0,0,0,0,0,0,0,0,0,0,0,0,0,0,0,0,0,0,0,0,0,0,0,0,0,0,0,0,0,0,0,0,0,0,0,0,0,0,0,0,0,0,0,0,0,0,0,0,0,0,0,0,0,0,0,0,0,0],"sum_hessian":[2.15733E5,6.7153E4,1.4858E5,6.722E3,6.0431E4,3.952E4,1.0906E5,1.731E3,4.991E3,2.0996E4,3.9435E4,5.143E3,3.4377E4,7.4225E4,3.4835E4,4.56E2,1.275E3,2.06E3,2.931E3,5.936E3,1.506E4,1.696E3,3.7739E4,8.39E2,4.304E3,3.579E3,3.0798E4,3.3921E4,4.0304E4,2.895E4,5.885E3,2.55E2,2.01E2,5.3E1,1.222E3,9.56E2,1.104E3,2.4E3,5.31E2,9.5E2,4.986E3,4.241E3,1.0819E4,1.012E3,6.84E2,2.9557E4,8.182E3,1.74E2,6.65E2,3.318E3,9.86E2,2.876E3,7.03E2,2.7279E4,3.519E3,9.116E3,2.4805E4,1.5357E4,2.4947E4,2.3504E4,5.446E3,3.168E3,2.717E3,3.4E1,2.21E2,3.8E1,1.63E2,2.2E1,3.1E1,1.019E3,2.03E2,7.31E2,2.25E2,3.36E2,7.68E2,1.915E3,4.85E2,4.11E2,1.2E2,7.32E2,2.18E2,9.87E2,3.999E3,2.051E3,2.19E3,2.036E3,8.783E3,2.84E2,7.28E2,4.51E2,2.33E2,2.9055E4,5.02E2,1.376E3,6.806E3,2.3E1,1.51E2,5.25E2,1.4E2,3.007E3,3.11E2,3.51E2,6.35E2,6.47E2,2.229E3,6.48E2,5.5E1,1.6956E4,1.0323E4,1.155E3,2.364E3,1.919E3,7.197E3,1.9061E4,5.744E3,5.534E3,9.823E3,2.1907E4,3.04E3,2.339E4,1.14E2,5.366E3,8E1,5.44E2,2.624E3,2.65E2,2.452E3],"tree_param":{"num_deleted":"0","num_feature":"9","num_nodes":"127","size_leaf_vector":"1"}},{"base_weights":[7.4445343E0,1.1991496E4,-5.4130938E3,3.1423235E3,1.28652705E4,-3.9590864E3,-5.886441E3,3.625755E2,3.7999832E3,1.0997433E4,1.3855163E4,-2.8340752E3,-4.1433643E3,-5.5154463E3,-6.6743413E3,-1.145654E3,1.035373E3,2.5068271E3,4.7335776E3,1.2286303E4,1.0444767E4,1.2928344E4,1.561726E4,-3.997715E3,-2.601771E3,-4.944802E3,-4.0499727E3,-6.101874E3,-5.0234106E3,-6.707043E3,-3.230187E3,-3.1838743E3,-9.288998E2,1.7618336E2,1.4174337E3,6.4117646E3,2.075107E3,4.235548E3,6.606417E3,2.4989795E3,1.2496349E4,8.994601E3,1.1550848E4,1.1605698E4,1.4820279E4,1.490405E4,1.8093494E4,-3.792797E3,-5.0259785E3,-1.7211029E3,-3.027512E3,-4.7467227E3,-5.717709E3,-3.8334578E3,-4.4243257E3,-5.5427188E3,-6.308735E3,-5.4079893E3,-4.786761E3,-6.56929E3,-7.2829893E3,-3.8933516E3,-3.645933E2,-2.4799492E1,-2.609254E2,1.20093796E2,-8.2797134E1,3.4188336E2,1.7438657E0,6.329686E1,1.9172742E2,5.645526E2,1.9477634E2,5.035307E2,1.2596003E2,3.767456E2,1.7688101E2,6.1751E2,1.556951E2,5.83103E2,-2.4726259E2,9.176351E2,1.0926042E3,6.8590826E2,8.8101404E2,1.0725663E3,8.400715E2,9.835449E2,6.892319E2,1.3367957E3,1.0232535E3,1.3597887E3,1.01372534E3,1.7335503E3,1.393759E3,-3.85257E2,-2.7445084E2,-4.210798E2,-3.0329938E2,-6.0063835E1,-1.6105673E2,-2.0915746E2,-3.5157352E2,-4.3674622E2,-3.620375E2,-4.625185E2,-3.856186E2,-2.8499774E2,-3.3641217E2,-3.59476E2,-1.8193452E2,-4.959833E2,-4.4027585E2,-5.179442E2,-4.5530682E2,-4.5885834E2,-4.1783167E2,-4.0059753E2,-3.5402344E2,-5.361157E2,-4.7810834E2,-5.976093E2,-5.196771E2,-4.1204422E2,-7.2634026E1,1.736495E2,-4.8963036E1],"categories":[],"categories_nodes":[],"categories_segments":[],"categories_sizes":[],"default_left":[0,0,0,0,0,0,0,0,0,0,0,0,0,0,0,0,0,0,0,0,0,0,0,0,0,0,0,0,0,0,0,0,0,0,0,0,0,0,0,0,0,0,0,0,0,0,0,0,0,0,0,0,0,0,0,0,0,0,0,0,0,0,0,0,0,0,0,0,0,0,0,0,0,0,0,0,0,0,0,0,0,0,0,0,0,0,0,0,0,0,0,0,0,0,0,0,0,0,0,0,0,0,0,0,0,0,0,0,0,0,0,0,0,0,0,0,0,0,0,0,0,0,0,0,0,0,0],"id":14,"left_children":[1,3,5,7,9,11,13,15,17,19,21,23,25,27,29,31,33,35,37,39,41,43,45,47,49,51,53,55,57,59,61,63,65,67,69,71,73,75,77,79,81,83,85,87,89,91,93,95,97,99,101,103,105,107,109,111,113,115,117,119,121,123,125,-1,-1,-1,-1,-1,-1,-1,-1,-1,-1,-1,-1,-1,-1,-1,-1,-1,-1,-1,-1,-1,-1,-1,-1,-1,-1,-1,-1,-1,-1,-1,-1,-1,-1,-1,-1,-1,-1,-1,-1,-1,-1,-1,-1,-1,-1,-1,-1,-1,-1,-1,-1,-1,-1,-1,-1,-1,-1,-1,-1,-1,-1,-1,-1],"loss_changes":[1.4043315E13,5.205582E11,1.0242595E11,1.1062452E10,1.1314869E11,7.5679007E9,3.2787923E10,1.177262E9,5.896577E9,1.4994899E10,6.5202553E10,1.3814702E9,2.331181E9,2.2000173E10,4.026663E9,1.5520442E8,2.630169E8,3.4494116E9,2.6219028E9,1.3055951E10,2.3741202E10,6.551503E10,2.4100209E10,1.6109363E8,1.6051405E9,4.740956E8,2.2638756E9,3.9936328E9,3.7531156E9,2.7770225E9,6.447027E8,6.580512E6,8.532054E7,1.5678443E8,3.3841408E8,5.062364E8,3.8995348E9,2.1448376E9,3.0696428E9,3.6370028E9,7.2674836E9,5.371232E9,1.6288973E10,3.171641E10,4.1195667E10,4.9877615E10,7.0206095E9,2.4909926E8,2.0809728E7,3.9585997E8,1.622741E9,3.8712115E8,1.0078208E7,1.781547E9,1.5214182E9,2.087977E8,2.561278E9,9.291039E8,2.0292567E9,2.2122332E9,9.622323E8,1.0312292E9,4.210461E7,0E0,0E0,0E0,0E0,0E0,0E0,0E0,0E0,0E0,0E0,0E0,0E0,0E0,0E0,0E0,0E0,0E0,0E0,0E0,0E0,0E0,0E0,0E0,0E0,0E0,0E0,0E0,0E0,0E0,0E0,0E0,0E0,0E0,0E0,0E0,0E0,0E0,0E0,0E0,0E0,0E0,0E0,0E0,0E0,0E0,0E0,0E0,0E0,0E0,0E0,0E0,0E0,0E0,0E0,0E0,0E0,0E0,0E0,0E0,0E0,0E0,0E0,0E0,0E0],"parents":[2147483647,0,0,1,1,2,2,3,3,4,4,5,5,6,6,7,7,8,8,9,9,10,10,11,11,12,12,13,13,14,14,15,15,16,16,17,17,18,18,19,19,20,20,21,21,22,22,23,23,24,24,25,25,26,26,27,27,28,28,29,29,30,30,31,31,32,32,33,33,34,34,35,35,36,36,37,37,38,38,39,39,40,40,41,41,42,42,43,43,44,44,45,45,46,46,47,47,48,48,49,49,50,50,51,51,52,52,53,53,54,54,55,55,56,56,57,57,58,58,59,59,60,60,61,61,62,62],"right_children":[2,4,6,8,10,12,14,16,18,20,22,24,26,28,30,32,34,36,38,40,42,44,46,48,50,52,54,56,58,60,62,64,66,68,70,72,74,76,78,80,82,84,86,88,90,92,94,96,98,100,102,104,106,108,110,112,114,116,118,120,122,124,126,-1,-1,-1,-1,-1,-1,-1,-1,-1,-1,-1,-1,-1,-1,-1,-1,-1,-1,-1,-1,-1,-1,-1,-1,-1,-1,-1,-1,-1,-1,-1,-1,-1,-1,-1,-1,-1,-1,-1,-1,-1,-1,-1,-1,-1,-1,-1,-1,-1,-1,-1,-1,-1,-1,-1,-1,-1,-1,-1,-1,-1,-1,-1,-1],"split_conditions":[1E0,4.42E0,1.5E1,2.08E0,2E0,4E0,5E0,1.67E0,2E0,2E0,4E0,4.75E0,2.67E0,2E0,2.983E1,2E0,1E0,1E0,5E0,6.25E0,4E0,4E0,4E0,5E0,1.033E1,5E0,5E0,1E0,5.83E0,5E0,4E0,3E0,4E0,5E0,1.92E0,3E0,1E0,3E0,5E0,4E0,4E0,5E0,2E0,1.992E1,2E0,2E0,1.1E1,2E0,2.83E0,2E0,5E0,1.58E0,2.42E0,1.1E1,2.725E1,2.08E0,2.358E1,2.33E0,4E0,4E0,4E0,3E0,1.7E1,-2.4799492E1,-2.609254E2,1.20093796E2,-8.2797134E1,3.4188336E2,1.7438657E0,6.329686E1,1.9172742E2,5.645526E2,1.9477634E2,5.035307E2,1.2596003E2,3.767456E2,1.7688101E2,6.1751E2,1.556951E2,5.83103E2,-2.4726259E2,9.176351E2,1.0926042E3,6.8590826E2,8.8101404E2,1.0725663E3,8.400715E2,9.835449E2,6.892319E2,1.3367957E3,1.0232535E3,1.3597887E3,1.01372534E3,1.7335503E3,1.393759E3,-3.85257E2,-2.7445084E2,-4.210798E2,-3.0329938E2,-6.0063835E1,-1.6105673E2,-2.0915746E2,-3.5157352E2,-4.3674622E2,-3.620375E2,-4.625185E2,-3.856186E2,-2.8499774E2,-3.3641217E2,-3.59476E2,-1.8193452E2,-4.959833E2,-4.4027585E2,-5.179442E2,-4.5530682E2,-4.5885834E2,-4.1783167E2,